{"layers": [{"name": "image", "type": "LAYER_INPUT", "index": 0, "width": 24, "height": 24, "depth": 1}, {"name": "conv1", "type": "LAYER_CONV", "index": 1, "units": 10, "weight": [[0.05264626344042962, 0.0014009422925122658, -0.04733571595472758, -0.13796931397748738, -0.30419024220051466, 0.2756390707363433, 0.05366377508818543, -0.11341309867437946, 0.2355874833404268, 0.22350361600820953, 0.09218664625244449, -0.0558950073189966, 0.02834699202131038, 0.2620792526083145, -0.012103647794755288, -0.3247826859188936, 0.01739053301049346, -0.07026897418540355, 0.17169501674481338, 0.2157115367661938, -0.04079340123698145, -0.2434595624189851, -0.13176229722858682, 0.08519564831967937, 0.2567002562653104], [-0.08435162859828793, 0.11663530987903621, 0.02989319793428258, -0.08959014749618942, 0.7481705051733606, -0.13832500696207814, -0.200051222783971, -0.03761805948670879, 0.5112969226420769, 0.09711372428163755, 0.146502518344893, -0.010856094857927557, -0.0854016096378018, 0.004941807391091345, -0.07904032109147056, 0.23554060596953783, -0.06491168269369717, 0.13504150272797452, -0.00429669488946313, 0.061068090521368315, 0.048207789656562305, -0.10294665861033554, -0.11232357066075381, 0.1389399460715048, 0.07062159799656614], [0.09310758370142944, -0.019594076762812586, 0.38427771009198375, 0.24793649866746276, 0.07942365281185973, -0.015146101457885038, 0.04709300332786939, -0.08939358770548299, 0.22086715149962333, 0.38040129519069843, 0.19944217842858364, -0.06220460618479978, 0.08315168271702081, -0.2066067136598419, -0.16341017870876098, 0.0964390799963054, -0.14184878307361898, 0.16950714144897341, -0.21497238004189786, -0.33916385244113156, 0.2544949184957154, 0.17566599005025466, 0.12340382351637642, 0.12801670490165135, -0.05375521433828664], [0.20943397886605714, -0.25504808176413746, -0.026361077716351527, -0.023559926415582296, -0.08138419096006658, -0.12543727254666898, 0.18722675480424486, -0.23093422620817117, -0.0456699468476368, 0.22220658954288883, -0.10312995109972195, 0.0880072739465211, -0.07357881651973917, -0.31435448933276794, -0.04628070770467308, 0.32188768943353374, -0.09953494536838557, -0.03533647931004645, -0.10578885169495546, -0.06718924022253271, 0.14612159530024407, -0.34015620580094885, 0.1095491786755131, 0.20221767636981447, -0.17162940526447998], [0.08871328722565264, -0.26635394822156083, 0.04420665686004126, -0.07096455018554523, 0.23416278455279954, 0.338752759795199, -0.09325768317411583, 0.2094759072213419, 0.19916885027811926, -0.19367844353003072, 0.33646373805858937, -0.09424057005927326, 0.1788302074131062, 0.3730620336461347, -0.16160533334004626, 0.13626982230984203, 0.08279398761501393, 0.18608022913267094, -0.0823079155401053, 0.25464974756505204, 0.15330838488784596, 0.2314936614007685, -0.3163184311056145, -0.39901798355900625, 0.135806174837595], [-0.3612089191537685, -0.2052810517011858, 0.08439390532273258, -0.13710226773244, 0.12609640687140725, -0.13199497443747563, 0.09441811108197211, -0.16135664007511702, -0.24996389852793124, -0.25316352218238775, -0.058728342506748216, 0.11466906449727395, 0.14572155283173593, -0.05201989441744725, -0.0016976913156812243, 0.06267620268441353, -0.19121108057097055, 0.020024296775318137, 0.23980059520143215, -0.22255565998758942, 0.018679807349075435, -0.10617735942961788, -0.2293576560177712, -0.05227779602782495, 0.2637243666557874], [-0.06159491585253931, 0.19862009422517318, 0.04274562127289811, 0.22305592698053528, -0.06956464863280512, 0.1891972267503073, -0.058044761532990236, -0.0810300585260101, -0.07630356179813384, 0.0537629111116028, -0.2100082376872302, 0.43509929671093633, 0.13317831599694233, 0.23857706190515462, 0.11991377503946014, 0.03798882976101089, 0.050877590168484685, -0.03655683025890339, 0.02155372904986727, -0.047686291859230186, 0.0993403517332149, 0.0630934180939676, -0.013696671193788541, -0.02115648646067658, -0.12302643745704303], [-0.03641463100924767, 0.14624438931889439, 0.13657296508621142, 0.10000644251599645, -0.002915668242272341, 0.04873087178893621, 0.14722776468684676, 0.28068904427108293, 0.06883816511392483, 0.011575562424454499, 0.03625675042562468, 0.18191019477490752, -0.019065065391869394, 0.16715316403409208, -0.19730735595153384, 0.1892547838389303, 0.2454381522482948, -0.02013759923445486, -0.26906060391176656, 0.1648390050303837, 0.1067699543402815, -0.042152851879451524, -0.21344675425205228, -0.21127681848934363, 0.08325540766756664], [0.18244048325503917, -0.13496785796299632, 0.3502851841392049, -0.0901192560911372, -0.07886771761754784, 0.03445876732084148, 0.22622247386121602, 0.17119005043351646, 0.3010337302347684, 0.10706208861952471, -0.08102980845850029, -0.16662346238517678, 0.004295751787846635, 0.18580970618074474, -0.1222016251319151, -0.1362849241037531, 0.06339472842739088, -0.028074176502935262, -0.010667197150700762, -0.1716486460643509, 0.08500509080792741, -0.3596151123017367, 0.1420662198119677, -0.017769107297034438, 0.25872989515057704], [-0.06858118845762559, -0.0023318738314714177, -0.12541286878065733, 0.14217589474079215, 0.06447340724693375, -0.28696636151776495, -0.19724482673928337, -0.06953796245865172, -0.16188256451868493, -0.2589375149206085, -0.041175398142731585, -0.12966653445299187, 0.04430940771751211, -0.20473195882415143, 0.19986176366455877, 0.20887473407813667, -0.2443436513880808, 0.3748593754862627, 0.09902623815082992, 0.038452356887087404, 0.08556146374171206, 0.11749403328370561, 0.043048440313270674, 0.10996229727440411, -0.2287291942105515]], "kernel_width": 5, "kernel_height": 5, "kernel_stride_x": 1, "kernel_stride_y": 1, "pad_x": 0, "pad_y": 0, "biases": [-0.0021929772847089036, -0.011306070509046636, -0.005930671088953416, 0.007602375782918032, -0.019397897686647743, 0.002259789217237598, 0.0012067536517852988, -0.007145759321241949, 0.0088744387610567, 0.003102713074942987]}, {"name": "pool1", "type": "LAYER_MAXPOOL", "index": 2, "pool_width": 2, "pool_height": 2, "pool_stride_x": 2, "pool_stride_y": 2}, {"name": "conv2", "type": "LAYER_CONV", "index": 3, "units": 20, "weight": [[-0.12328465898399281, -0.014554913611715847, 0.09565452028141161, 0.0799145132063542, 0.008322334905924999, -0.033307897546214785, 0.05744660526536599, -0.024564244628829456, 0.025264417785766706, 0.0014348504989306716, -0.04573586003305524, 0.005909941718722384, -0.0034412961112249636, 0.010123888446111772, 0.01256469822639245, -0.06908921391388864, -0.15959452289654716, -0.041635874342360414, 0.03356011621577122, 0.05253291121786659, 0.07270342480668357, -0.1270228309267084, 0.05539317911778794, 0.06135671247771431, -0.04956540434811162, 0.030547087666783462, 0.02075823454187675, -0.040229436885679024, -0.09746191867237314, 0.05542817732810874, -0.04555415906764164, 0.02611181350205705, 0.0614580156578401, 0.0584479310259009, -0.03779072384560233, 0.09337094575604521, -1.904976092520082e-05, 0.0503146498567523, -0.03789141184482748, -0.008081313658369244, -0.02422877579782084, 0.12085246438249536, -0.00949088700588841, 0.02422680497501952, -0.06847340378676989, -0.12346473693869285, 0.08048613928372526, -0.007202169970501775, -0.031017896024526922, -0.01266732775419994, -0.08979041447806538, -0.039473664541613204, -0.11474440761597465, 0.009340444209516068, -0.12083372683764025, -0.054284979234751, -0.0073783112438394445, 0.06530070973418425, -0.015241390926270432, 0.03566450992043906, -0.10933531825355354, 0.04016322244523225, 0.10126048992998476, 0.020506551943004853, 0.09426665790098133, 0.04298941349943454, -0.019766596400875813, -0.14918324858557402, 0.08784913451463602, -0.1669277178785715, -0.04181857220599717, -0.07770413525010277, 0.058531313194566274, -0.0490971996259636, 0.015063399010028644, 0.0042225048606772154, 0.1674005030169239, -0.0808717618564285, 0.04158880555415333, -0.0548574161254382, -0.04756285893095496, -0.12469893771669188, -0.01564877753163911, -0.07526016264580522, -0.11723849723919427, -0.04901966577215572, 0.014353059541074575, -0.02106554133435139, -0.051104714494920274, 0.07908433415543434, 0.019413922016941036, -0.0033266109463273475, 0.004038362031352501, 0.078879457403022, 0.16368120982777068, -0.162320589654823, 0.024680520731900427, -0.013887017395835014, 0.023324163817406197, -0.04065995900895569, 0.012269956249518722, -0.019094441922681855, 0.009833603151849763, 0.017430304866293114, -0.0225123386758645, 0.06192928152502498, -0.14993993732751024, 0.020962506731866823, 0.03371708860578736, -0.0019467970884417774, 0.000752591130519154, 0.034946376182880885, -0.055377928853342806, -0.08630606920895562, -0.10729400975409407, 0.10245735919934709, -0.04107110507836121, 0.07513416218637009, -0.09034288144048866, 0.08019994676035838, -0.06006525476498767, -0.04189401388241775, -0.019557655857839338, -0.008756264371966093, 0.1180342322441256, 0.12817290617744231, 0.11063876865967896, -0.08250086064023532, 0.09243213688285497, 0.11992136077483057, -0.0872851968708831, -0.031457853544107635, -0.0314351029015769, -0.025317718281626645, -0.1301551800994576, 0.024184210076319736, -0.04581149866394686, 0.036248300990253446, 0.02480579848514515, 0.07304069095409636, 0.05322192028944012, 0.001918144453418324, 0.12471527094941451, -0.082464977440276, -0.02268437830211286, -0.03787972422121493, 0.07189761955040859, -0.0783541058839996, 0.02428348284664871, -0.014449140186353146, 0.04587909246306148, -0.16638522092953423, -0.08932699946948738, 0.029860170251056698, -0.018798604941590816, -0.04400222938652439, -0.0008231210206898832, -0.061633607189151576, -0.06739038857018634, 0.11492652597690166, 0.020452696075849708, -0.1625044377696661, 0.123861634504098, 0.01741548663819366, -0.10234715905831267, -0.09991136565170063, 0.02334140555093049, -0.13570992066864257, 0.05495839712553084, 0.16124837001666398, -0.0006933125812544681, 0.01438375087206018, 0.1342547942156962, 0.027414765026858048, 0.0068553558753270205, -0.03323783738997943, 0.10375593773608809, 0.05635637666227455, 0.08443330756385456, 0.07710989229012084, -0.029939815825076092, 0.1045559347931614, 0.022153729515997936, 0.03668557567203722, 0.02110671233615896, -0.034760749355937405, 0.04458655686697856, -0.05111282472167668, -0.0028256564153445437, 0.04431959711702766, -0.07088740926293509, -0.039631180071198875, 0.011938100983751513, -0.01140583701453612, 0.045193676644543, -0.04462814186423356, -0.012430441252046445, -0.09892235265029496, 0.050001026136505436, -0.0399074143640037, -0.09397491267173361, -0.08944200686051294, 0.08755184435796094, -0.06774581587510947, -0.009409311293931013, 0.01021321037341485, 0.07706237662411905, 0.03382269338227834, -0.07616739848866086, 0.026386795323709022, -0.04506579861087736, -0.06270567035681382, 0.04599182342960813, 0.015393032068449218, 0.004518417297606736, 0.06968313903323392, -0.10661018841647883, 0.08193359819279701, -0.04090650730656, 0.07484226550959107, 0.00914139067728679, -0.12439336463346495, 0.1428925956158764, -0.08503053345474472, 0.012776596918677604, -0.01886455489039296, 0.11424683512531213, -0.011556888649575336, -0.03773767670612874, 0.039485112460462435, -0.07955590957343488, 0.02528605131048458, 0.004315223218135706, 0.11377703305354714, -0.04660514283671252, 0.10119774070866072, 0.019991322478432223, 0.011226592240664227, 0.025137647763337302, 0.03508992640294604, -0.012940142115699492, 0.05525002275942787, 0.10899739210996766, -0.008463061142984991, -0.04543255177248271, -0.08022213039053158, -0.17476269008588233, -0.03505413736830467, -0.017995483404168906, -0.010609171015793006], [0.06935797887455013, 0.08413093497523694, -0.062339877343729755, -0.12557848765478574, -0.05943520872421098, -0.13067323077249404, -0.01985903857489217, 0.14421501020106292, -0.11248369819603714, 0.0637304591762164, -0.11642548767549578, -0.07203101015115553, 0.027855089546811047, -0.07019609306343128, 0.05143216865042361, -0.03317952863148564, -0.03270095045739709, -0.034538908696409465, 0.06824308896666324, -0.047653301771846256, 0.11284271300689075, -0.0170457274793247, 0.06053840108636797, -0.01203011152218558, -0.04639872701831875, 0.0395795564295507, -0.00988056164549205, -0.05137330658403934, 0.09642411157723703, -0.031557748957118464, -0.01065665321358077, 0.02968263588786778, -0.010123819419728074, 0.02032818511239681, -0.008138747397767836, 0.08891787957930676, -0.05845283197732423, 0.000218562060021866, -0.042709137112909926, -0.03380490478780113, 0.010008164227179595, 0.07658907639047821, 0.018286017378631725, -0.020140399309351055, 0.005235690784732229, 0.01868780365103212, -0.03774922325051527, -0.030158958459183274, -0.005219315336993463, 0.0263180750093695, 0.06504650495692044, 0.023544171625019136, -0.09458399680887448, 0.0531306143108613, 0.036637658034607536, -0.04719461927569482, 0.0013779466542606644, -0.1924203187474569, -0.08601305044494376, -0.057173101293474145, -0.016422702805944604, 0.08156211235676393, 0.13107252461109067, -0.01532675309249691, -0.12452205274972214, 0.1572726375855796, 0.14516935624179628, 0.05746809805718214, -0.051815273154247554, -0.0032892143159571133, 0.0262436625651436, -0.0018405166360909492, 0.025721751309174555, 0.06173316161606515, -0.042570921733259874, -0.06408107714188489, 0.07240861070008664, 0.0065780694822545095, -0.012505596897632436, -0.0030889639204496125, -0.0698370318705883, 0.06475321114863342, -0.04668417631036484, 0.09061063673329396, 0.05071216570154886, 0.06774155419199289, -0.09621957164243136, -0.021742458193897304, -0.0115255065743852, -0.16980614800499902, 0.032128630245715745, -0.009934686062874433, -0.06583774228803788, 0.10364744833189472, -0.03633669107684007, -0.059830504682116, 0.024383747354406037, 0.08502503017281979, -0.027726833570922173, 0.0009754637685651551, 0.026430736383936688, 0.09198455552006199, 0.1285074489984039, -0.14682947512705347, 0.009193521378365673, 0.07551736606370517, 0.02265022541504113, 0.0603273974964224, 0.05312022469182367, -0.03849754223002641, -0.029423702953386987, -0.06323587215796793, 0.024065373727390947, -0.0847421855678769, -0.07652902667284807, 0.144423792751131, -0.06478886689909907, 0.06964702326961254, -0.06994301620405885, -0.00296767624368611, -0.10765457054072246, -0.08250528205650147, -0.06243672931290121, 0.04477805382915572, 0.0799293699087305, 0.09665133225606735, -0.01369404102153435, -0.08294531210490107, -0.04718385603852489, -0.03117770937497929, -0.0023962637670549448, 0.10098668808368375, -0.07514496008548806, 0.01053149563232046, 0.08785175292771331, 0.10374578953002363, 0.05876225983279605, -0.06835001593150186, 0.13098606652838224, 0.060360355531942064, 0.08209994647724146, 0.025886611312033687, -0.12017287436299795, -0.002214567416918905, -0.11935480891129777, -0.037259374051222725, -0.11834420222925816, 0.0140038890065106, -0.030013135581618503, -0.05640972986990658, 0.03757884334830273, -0.060130764220803386, 0.05788316726441044, -0.028413752258697855, 0.0007484990851980387, 0.1479818210410269, -0.10609913502751918, -0.1097138542917803, -0.14309170043954622, -0.1093600996130421, -0.1036693174415113, -0.09096984371531115, 0.05271236096820333, -0.04437336032594199, 0.01877428767910473, -0.07708698696279688, -0.04057250317568787, 0.0190393933372143, -0.005025518400755208, 0.09077624174856694, 0.0855460957769316, 0.03988581965096921, 0.09694539982411, -0.015475615144078364, -0.07272231814738768, 0.007782820946973259, -0.04595873560225656, -0.01254066380947505, 0.010448055620881443, -0.06294768287405024, 0.09148470656228536, -0.1029630829386279, -0.015058388861499261, -0.03429402599806177, -0.03414339157506953, 0.011578523669766378, -0.03846436146734648, 0.02522591826946804, 0.04847232091095095, 0.016745282304639463, -0.0947510540279972, 0.05224153670648223, 0.033184482469103056, -0.029097852200218127, 0.029751602384766308, -0.07788778482764011, -0.09819114395402359, -0.0516128647077213, 0.13462141651263912, -0.03680114195130283, 0.016135182788035975, -0.1049632776004634, 0.05922208635249196, -0.04139602668767128, 0.057850065626568636, -0.0011486510194348943, 0.10746926865804482, 0.018660854811144774, 0.09761874180824834, -0.01464564792499432, -0.019922853251183745, -3.0507550044956994e-05, 0.019605920781726172, 0.07550841272459347, -0.01057118036323087, -0.1159297100587907, -0.026195979885138748, -0.009329997743174662, -0.08645846059511884, 0.07226272743253365, 0.11445033398333938, 0.014371998719665335, -0.07112897904474534, -0.09372108186483696, -0.05321657619564167, -0.02994328992083776, 0.03199540458354589, -0.03820257038035678, 0.02501561866022824, 0.03194139532349034, 0.07389251116869848, 0.031727912104774394, -0.05022509012006498, 0.01411487947208738, 0.044467685140041284, 0.004534004880244129, -0.07351962991814932, -0.01582876479614578, 0.08276549201301371, -0.09800444860737861, -0.05568679840403509, 0.02431528247283512, 0.03324740262446164, -0.07608971549785143, -0.04662878130093526, 0.02280304232995969, 0.1378771241619062, 0.0356245065855628, 0.07906619596283794, -0.09372313021732406], [-0.04545972894262687, -0.06543562307619767, 0.021662113243928367, -0.07608099299855182, -0.12528877648629527, -0.0595964558141521, 0.05098360721096663, 0.08490262170793489, -0.028420531605012872, 0.0663523715599066, 0.0028787321508029606, -0.1087211880085082, -0.02350897692305931, -0.07175100192968101, -0.0263352289547697, -0.00032748234775401355, -0.009984418829087753, -0.014677141327377012, -0.005985157488805451, -0.018681889589184333, 0.09025253627688043, 0.06796767918256245, -0.011258364937100508, 0.0653821719862474, -0.0448785519595256, 0.031592649109571214, 0.10188871904994054, 0.0003522187552387687, 0.03029629528503006, -0.08270063350151957, -0.08746809803001997, 0.11340372222059927, 0.027024574001813517, 0.03932594549995988, 0.07428026909848962, -0.03618983559595339, 0.051217206015121364, -0.1052134999228402, 0.0022460583110008453, 0.05684192503760421, -0.0729335261871541, -0.07114769771346173, 0.015881193004437372, 0.08412310667914386, 0.027548131641158415, 0.05904163816809335, -0.012652284359429816, 0.04079404595479909, 0.003740881116418207, 0.0667512339224562, 0.012303627118033993, -0.07462931765125644, 0.0144876352114412, 0.015305473614582852, 0.07791501105796018, 0.00016233721795865593, 0.06267828084225542, -0.013691701211166928, -0.04534310974189133, 0.09721986361557303, -0.02251411363826477, -0.0051498115545726844, 0.02674421782609658, -0.027568198136712192, -0.08564145430486247, -0.03577418407497925, 0.0028392076575239696, 0.022929618352444454, 0.028301804823433536, 0.06237489237310573, 0.02789826217820642, 0.043919198523001815, 0.04085945327455892, -0.05380372142579396, -0.0003170521230280399, -0.12328949183066655, -0.061876327706605595, -0.04578136998822506, 0.05968669941295199, 0.09418894327263815, -0.13237446457943286, 0.05048719600672741, -0.00016035085939690165, -0.004235267655727904, 0.027015906026211314, 0.04950923365386306, 0.037292226791707406, 0.1781285841289955, 0.009367159803469867, -0.010126445036402467, -0.016771810258928797, -0.02321134290274651, 0.05712047234154197, -0.08752098725756143, -0.10477655849004393, -0.0547183628292413, -0.06264969454175146, 0.022252661525412536, 0.04922091052362834, -0.12100887741220955, -0.038184829047497384, 0.04801775827328949, -0.07070807038317409, -0.01024918696355218, -0.05924490126772911, 0.08583416621802396, -0.00014359762710968154, -0.1359146256223231, 0.05960154115574733, 0.04805821506138247, -0.013293184772915235, -0.013581304332576077, 0.012109174570710571, -0.15337007408744446, 0.0012061864743705, 0.0143819112150279, -0.06205668551741601, 0.1293001106602083, -0.07774577224090824, -0.03465098360964763, -0.06762198902523017, 0.05437785829318062, 3.0711587414330825e-06, 0.046663176724643415, 0.10051937633998155, 0.00457996129765603, 0.016926851416675628, -0.0072464776304721115, 0.04868529076875546, 0.09434033635762787, -0.07528551211554035, 0.006479786967322432, -0.033841528907488795, -0.015179250143648279, -0.07827450133636614, 0.005581268108052165, -0.05593001304958117, -0.10515374339244474, -0.025715397179652495, -0.0811669710012572, 0.12017679906091917, 0.1245601444124944, -0.08514269741195608, 0.014352084113875641, 0.05380558139008357, 0.008970576512895904, -0.039539900165988566, 0.03697360062053362, -0.05812179604115692, 0.036912091867950136, -0.0035043249976028624, 0.0585703514624823, 0.042906667670992715, -0.09499200860664705, 0.07392323040696737, 0.05049344990319787, -0.002110277986003959, -0.0013526883302679834, 0.006738141344391147, 0.018043170461388307, 0.034791986370216535, 0.06560666312425877, -0.08107644211764124, 0.05583608598609817, 0.01765951479230085, 0.06264979357077534, 0.034608018229534056, -0.05424424529138728, -0.07342264883839743, 0.002911389370059703, -0.013308491510346722, -0.0018073181646439701, -0.09278871281370618, 0.07110476318589333, -0.011903408290830577, -0.03524769461907829, -0.08792490352247717, -0.059625639412011294, -0.05181059750419461, -0.07297797584034649, 0.005560186173237716, -0.029737521793283234, -0.027390616329972216, 0.015471449548226207, -0.03216498738074893, -0.2098909067647914, -0.029043610153068243, -0.04358836987635407, 0.002869528865231184, 0.03360483094062147, -0.01542269558823933, -0.01163400921432376, 0.038846214483824325, -0.004008394013265536, -0.04912334896414106, -0.038100838976976054, -0.04609930202139015, 0.015432559596305153, -0.14385528938726225, -0.07058945297626058, 0.07331775036219099, 0.15173384727438707, 0.008283632530624651, 0.011000933297134387, -0.11203359056423427, -0.013377040792817797, 0.061314151196402614, 0.010433524362627688, 0.02167909705857561, -0.10593463333476613, -0.037788862256275806, -0.05784707732733291, -0.042814093349135995, 0.0007148346302158785, -0.043323057869330016, -0.04931270348963036, -0.10916639921499253, -0.025398042009246953, 0.019401879380824452, -0.03438165255233675, 0.0330118252682678, 0.014990121772393086, -0.06763022972937811, -0.023125309288495547, 0.08734366837344533, -0.09134941712602561, 0.05874058184128888, 0.008403428933742239, -0.08946445272795114, -0.057380096057915254, 0.02126588244413458, -0.07398956138157067, 0.010564394042676607, 0.03103785359013956, 0.06798874690706594, -0.05306941327890386, -0.06183549391397926, -0.0033783617570164485, -0.005633904056467683, 0.04025379449213573, -0.02582758440176725, 0.016206278851677317, 0.06559141826257685, 0.06537462669612062, -0.05845567767625505, -0.0415415661898618, -0.05378988574663566, -0.003917711832839996, 0.015059195325809079, -0.012996622083528002], [-0.00635105654007994, 0.05804774589005878, 0.11649307035095434, 0.02087044405447489, -0.10073302444162377, 0.10231398770682408, 0.09296420547865035, -0.004487122683251627, -0.00559568273398189, 0.0435563759808216, 0.034435240773392405, -0.009085819683933578, -0.020169351392293557, 0.006422960927995716, -0.06324147914018488, -0.04755736034794079, -0.0342771588056142, -0.009851148023487499, 0.0148176622151343, 0.010744074133548385, 0.09307922127869477, 0.06732714338058675, -0.08836643352149126, -0.047240017224054284, 0.04229080778515267, -0.013550530236126236, 0.02746005779420358, -0.0012796392115495782, -0.009758823336888172, 0.023768696493176943, -0.0019053638736405741, -0.01982855681648342, -0.08971606331728355, -0.07228668788064053, -0.09676199492994618, 0.013636880834720493, 0.1354427744762998, -0.04339585920413758, -0.07225250571357181, 0.07387729337092473, 0.010232657385754778, -0.059688482103168974, -0.07265985895466338, 0.014518640175718262, -0.04249973232645157, 0.03791997948768847, 0.03761476447980806, -0.008598686251905154, 0.01638162892873872, 0.11998836991487515, 0.06754940383116481, 0.10801272562364109, -0.07652942812466902, -0.06365251634895167, -0.023170696526820314, -0.07127448978370347, 0.02766396167732781, -0.016746768287439564, -0.05581365425150148, -0.028569190047635046, 0.04696914206645156, -0.21006705589057992, 0.07110951820496679, -0.011087520583889248, 0.010473276437609261, -0.074128119550006, 0.06819726397710554, -0.016272821755336748, 0.018979188832154437, -0.08138841281993357, -0.02615024338543022, -0.0011567530884745321, 0.04770813458791087, -0.07857338567023417, 0.038765897343027295, 0.03273505181632917, -0.03482205368789658, -0.14337772811234892, -0.15635407170729113, -0.0587838254239218, -0.019395833862946736, -0.11596632023577857, 0.13196953270724088, 0.035423323086607575, -0.08742257474177255, -0.008045220823888944, -0.13212672278642276, -0.013943697623540141, -0.0034778725267318534, 0.03428035514902658, 0.12277073486929793, 0.06285454855339509, -0.0693732665500197, -0.0323455233300367, 0.021375205579286308, 0.08162080252514858, -0.052957368058266265, -0.018341293522195556, 0.06562601310867547, -0.050049781199046066, -0.17998340837988341, -0.05186151628873189, 0.028753667382492118, -0.09038194965716387, -0.10984562394351188, 0.0956160241967118, -0.05202661861844992, 0.024275495365446258, 0.07808980221364366, -0.10292979222420735, -0.021838717025151805, -0.00536684574036821, -0.10813195862307842, 0.018068469256673162, 0.09755110649687064, -0.01842965220155432, -0.061184054229086245, -0.04176585233845588, 0.0032927467763236955, -0.07978336309059988, 0.028675687827529415, 0.09315284707975423, 0.07668956595989121, 0.021170530420104864, -0.1314494557959259, -0.14548404897064499, 0.03487324453124234, -0.008021381616135933, -0.017375109823623006, -0.00650215642482509, -0.07831704064806909, 0.08304956283677362, -0.013944730895586854, 0.002891570883390558, 0.009596526363146243, -0.12332300029137165, -0.04798025668789183, 0.006070393966972383, 0.08593183433391571, -0.11253806238770893, -0.0007801286312449703, -0.04225473446945942, 0.11986135018551586, 0.01551909575504046, 0.008355883653719283, 0.030416058902714073, 0.003426612795804436, 0.027848578341815595, -0.0461315715093959, -0.06245306998135013, -0.052117660240390655, -0.017997597619225116, -0.0838332827382243, -0.08762054272698555, 0.06398355839518143, 0.016023908327967053, -0.0886041281296974, 0.02706385617280334, 0.1883501421981839, 0.1628984498696208, -0.10824884001873093, -0.07828627072635942, 0.025570727032228374, -0.054122081560258876, -0.026151620665010072, -0.09199296630077758, -0.006943753491889273, 0.007789914274701499, 0.04204119760493509, -0.03525829756858253, -0.0909250931758106, 0.08118311376339368, 0.00510688450402417, 0.05316240948260537, 0.04426347793624648, -0.05514122011706606, -0.011624127601426773, 0.01772725555899075, -0.06346235427933024, 0.0555818055671704, -0.007955781629059548, 0.15443152394239792, -0.01444988693085894, 0.0995995963683455, -0.0022452476942490763, 0.029585805994412576, -0.06679269047778859, 0.10174890817371267, 0.022177879174687668, -0.02129644479319923, 0.052290860860967917, 0.01075847222219744, 0.032996666109583905, -0.024497521319809, -0.0365007735582942, 0.06347520486215341, 0.006172516685929712, -0.04582787329080089, 0.09510063670232306, 0.03083009134862942, -0.03070666358389516, -0.05118106247310732, 0.02245050059894598, 0.0044304453588611264, 0.02574181680996182, 0.014180118822173888, 0.038863183046795174, -0.04002106914702586, 0.11547449662735827, -0.0421330321112633, 0.06824577404412376, 0.02938805130361583, -0.06541208645958305, 0.09406692177341743, -0.11860012298843646, -0.04459408248270116, 0.028303703328221606, 0.03518259295812044, 0.006262819342541172, 0.10573865919009472, 0.04043692679099995, -0.12235281882285705, 0.14277975528418568, -0.034322233001001484, 0.03454092635528165, -0.02170427753808939, 0.008901714969851602, -0.12486184969361877, -0.13501129466572884, -0.0012473030688201694, 0.013673587719425624, -0.0826080513998003, -0.04672245982496897, 0.047325144309390714, -0.0049728795325634815, -0.01718544120861577, -0.06613822355526226, 0.018153178843942568, 0.03551017245665946, 0.0036527086585509292, -0.0601712823279666, -0.01918854011125176, 0.011121710387708846, -0.06611671330331349, 0.08777542454202056, 0.06331641678222291, 0.011932766951077237, 0.006727771655651633, 0.10223854978047096, 0.0019671677061875634], [0.12238087688681261, 0.06250532381520094, -0.05694847519355519, -0.015585224675800896, -0.029792003781635573, -0.09416860333451191, 0.021880662383749253, -0.03641711166931519, -0.053635651129901346, -0.025515086296665507, -0.015271450286624818, -0.00048437773871088004, -0.043921335911424, -0.03688819083938888, -0.10295841652019913, 0.028518738399316942, 0.06171288450384894, 0.05274663791945711, -0.028251794091415587, -0.03510682253404267, -0.006080960167872856, 0.0259061661288328, -0.1065325259161734, -0.05428182677303567, 0.05747375111156144, 0.03208693564181875, 0.010964197814354962, 0.05583269434531737, 0.02895586878364826, -0.015640145990244363, 0.07468654836754611, 0.004035853377323298, -0.06574912533922479, -0.017916293466374363, 0.016000431708833213, 0.0029964601302067523, 0.03845070204163367, 0.021280583309357875, -0.009682706730533236, -0.13827900729675746, 0.020895536016513904, 0.002426914278498996, -0.001386877608895417, -0.062418174378613474, 0.031772268042229546, -0.016526208774645352, -0.017324545048885902, 0.06975201282113079, -0.1518625950782786, 0.020846887266227947, 0.05486432106892181, -0.03182318316426755, 0.008504324734671933, 0.00482902449197605, 0.07282480305189987, 0.03846128330447559, 0.05204992933441105, -0.1069975967981194, 0.05174412892054976, 0.05975979513717035, 0.03628368753216772, -0.014883220227372948, 0.02177007379674873, 0.005893874723809664, -0.006508239689409507, -0.02764704659699861, -0.030308942179579055, -0.06215863409272533, 0.046737772538032706, -0.015085241791000441, 0.016167857348322733, -0.11323482233285952, -0.039278767935841424, 0.1413312628931234, 0.09047143219791799, 0.043549003299627034, 0.058665663879592066, -0.15649316653153256, -0.014041150023198988, -0.08067851307164449, 0.03742822338938805, -0.027792099469605, 0.060906981350608534, 0.10653497124139195, -0.06416331822474257, 0.09917099458724743, -0.021344946059034156, 0.049531146950855795, 0.005898362274162104, 0.05121765096706655, -0.16929083145089172, -0.14775321466959765, 0.15845150894424193, -0.07801033169112667, 0.07839494815600102, -0.06510012070645732, 0.08885040673830703, -0.12310421926795359, 0.12704148735322532, 0.006183394979102863, -0.015915954167066204, 0.022347313062414824, 0.04776434429321942, -0.04466291445481329, 0.17037211479817393, -0.027851407366505394, 0.022732049770603203, 0.016139352375539456, -0.12493905308283382, -0.05077802183227168, -0.03281656752359561, 0.045265051676594274, -0.001260464539907748, 0.04209970770029879, 0.03553717435759494, -0.08837127838402943, -0.07054474180673002, 0.08149072624228237, -0.010874449896075118, 0.06602550806709337, -0.007745296677419757, -0.0028299845904481537, -0.04040113446816168, -0.04081042215542622, -0.02714040429638691, 0.037064018161177784, 0.0587222710022222, 0.1016096166826759, -0.039096167198257294, -0.022257511492952534, 0.09664245786103665, 0.003755261046856602, -0.042298572106815625, 0.07523410481809883, 0.08143950584723667, 0.08529995114664726, -0.07699469196762541, -0.026328681268799163, -0.04167963885041978, 0.01957857852839294, -0.08297882300792435, -0.061316060381769635, -0.05675770682941285, -0.0015000456414713964, -0.11292929272497024, 0.041637624350847995, 0.08521523995554217, -0.029961792354512535, 0.041466519581810454, -0.06755442009071476, 0.10134993049862143, -0.11096068153212629, 0.10579678871485236, 0.047527067412532265, -0.017653587716296604, -0.1023690688566171, -0.06934268817394888, -0.08003432927668301, 0.023950289075317162, -0.031133744177990898, -0.0042534396661731266, -0.06635210341221333, -0.02282374403095744, 0.05323082900659541, 0.08640414008738419, -0.06892384877108385, 0.03222043812652445, -0.03957549400213461, 0.08009252525675299, 0.08734214541002644, -0.03778066055484538, -0.030149976067332912, -0.03493270079325626, -0.0012136005309261683, -0.029298851414718476, 0.05720441172345972, 0.03855960547818645, -0.0011385859021677196, 0.07723976625175917, 0.11105473536854227, 0.08794921263244604, -0.11418095685179812, -0.011463901147321126, 0.10900242967930579, -0.045679935250614034, -0.015257173865727117, -0.061626224486625664, -0.05660857586088393, 0.06747999803228612, -0.04001527250621965, 0.07366627705890902, 0.07112691010799263, 0.08597288740421942, -0.07078700761265262, -0.009049691497877944, -0.0933911544295616, -0.08533314154108541, -0.010798741244522242, 0.009648079387095696, -0.03079609814961963, -0.040551926017751566, 0.062132480502268175, 0.0626136240810407, -0.014843709037420284, -0.011535031142466264, 0.0648811798143179, 0.04538377543915101, -0.1064137989486977, 0.0390304434932574, -0.05502990415388344, 0.05302621609477154, 0.04375811350266173, 0.01809294433950414, -0.07893468426736668, -0.05634855021640881, -0.1161811119223856, 0.05461175069657093, 0.10289773416698592, -0.03038454253279573, 0.07035673640450726, 0.038839335554186824, 0.036625734727645576, -0.014931019264586386, -0.07543846652826511, 0.03239069855271819, -0.10531243218312837, 0.12379358111743201, -0.055323186094095776, 0.017361798298068762, 0.04768574014021468, -0.031625163430112145, 0.08925061680218778, 0.0854987068146022, 0.02045403174386513, -0.047125779201639684, 0.016281932335729003, -0.014146902735840386, 0.01143053369756887, 0.029681392296427196, 0.024921664879251168, -0.05196882167375654, -0.0006558582472335839, -0.02235020278009197, 0.06786881911018855, -0.08062244357234896, -0.14203339852945895, 0.06978356804786406, 0.03623099167054276, 0.02703946339808998, -0.04331439366899144], [-0.016055568190105472, -0.032708071111240467, 0.07597228942741326, -0.0310725206154067, -0.011897105781569588, 0.1000216682196786, -0.04220653289033503, 0.004434533069810434, -0.005556071242485715, -0.1228927568595293, 0.03905687643056872, 0.12677112907365753, -0.06165518298720405, -0.048469815101560496, -0.12731705662983353, -0.021222789305131676, -0.01257619589782423, -0.03086655593574209, -0.05377758093933132, 0.0318887750252007, -0.10762839714733523, 0.01582944942334594, -0.14008691489616806, 0.09964869385372661, 0.029210897168258206, -0.1279634014593139, -0.05783365175460537, 0.03239944937028639, 0.06565755379753194, -0.01621583130594042, -0.11866848921917526, 0.0692792736758749, -0.004220085754932913, -0.12582586721386624, 0.06620255734636818, -0.13922834532775016, -1.8386026011258045e-05, -0.05595903324675093, 0.08633732844072532, -0.03794210667490369, -0.10015318371441076, -0.006086538176877513, 0.10600271389531644, 0.05198647558242511, 0.001416611724974494, -0.06403492260391536, -0.09168730263601155, 0.11463509681839995, -0.019346211313065735, -0.02492582017079527, -0.009658957588938345, 0.05061100261026182, -0.03688414302608822, -0.04324281179588812, -0.0035571787955482118, 0.05842487077557174, -0.015185157436653426, 0.06668382419924733, -0.05543764589057032, -0.011129928606975719, 0.04926230786177748, 0.07145592700745955, 0.02155121607490648, 0.011082543758465468, 0.07244741488784621, 0.03850091818435969, 0.08161369888728523, -0.0405097571907508, 0.00298817865583145, 0.0069548296208847395, 0.0014317288478556858, -0.03481932231175549, -0.15912168789110312, 0.14178638187124754, 0.008372768529671396, 0.040358868433246466, -0.03352732639097703, 0.01779671909506808, -0.09953706186408794, -0.05864513961923914, 0.02640798524379004, 0.07504740529492869, 0.07478726830608168, -0.016560581467247367, -0.03432987169621065, 0.00491511017659363, -0.007684063411375709, 0.054273593370373394, -0.06861696520608201, 0.08480562092388075, -0.03008866395984299, -0.0513965282545442, -0.013867234467281081, -0.0067786584018014375, -0.01027325916104968, -0.07036950116547973, -0.051595723306660436, -0.04486282576773921, -0.03291831089618911, 0.05808033752658258, -0.07193859374132049, -0.0017297679782130291, -0.06761816955514435, -0.021375149739266172, 0.0128995463948963, -0.12998419503621264, -0.06995871810441218, 0.05337073922570456, -0.015259703952647814, -0.014170742817337528, -0.08215280425058537, -0.09199559306014948, 0.007853351477150652, 0.019365426034320923, 0.07494780908044209, -0.07963876639515499, -0.0625320317751454, 0.025432878786941563, -0.11984178753383291, 0.07006709880014363, 0.13537798673326298, -0.06441176893929329, 0.029177781001357476, -0.04334929175663976, 0.009868736713774553, 0.008147052320951479, 0.10685228139432613, 0.16417722248581343, -0.04918421390201108, -0.07439550975583142, -0.0811811112138553, -0.006952029863304999, -0.03339195835597061, 0.03887665426533099, -0.0033833517179747232, 0.05696292026214603, 0.06256849708117454, -0.062243462554312394, 0.04308026244209741, 0.15862725235854672, -0.06623778022696895, -0.053037072787491785, 0.026972988723364826, 0.05859303732351125, 0.058149745967990454, -0.16489258892179826, 0.03157918174688026, 0.057346613772488085, 0.031783879295928005, 0.04557481347557638, 0.05174511753032372, 0.04658563136291041, -0.10374705241495952, -0.02940118456579139, -0.09325461634447364, -0.02743279940957614, 0.007873847848501437, 0.07893917022456702, -0.019684241957391047, 0.08314383924994428, -0.023282222350885833, -0.008680131144249583, 0.06123086740231951, 0.08113995706569244, -0.07101924901566106, 0.08707579144454505, -0.05604778377144927, 0.04530914365038127, 0.029662722834259816, 0.028108820940118757, 0.0043727095934434496, 0.05129129267257713, -0.07803443389886816, -0.057122506793090125, -0.1079263766477307, -0.047950394408053335, 0.014806106423285389, 0.027677924998873223, 0.06619253662842037, 0.002463735620624142, 0.0948826840732025, 0.05159052041581752, -0.09816481182594719, -0.0452783331762979, 0.0031556346224400835, -0.10127013525926909, -0.06521004185801928, 0.03480867564219521, 0.08225907338848111, 0.029807047553514973, -0.009162854255441675, 0.0016811888260595566, -0.038706217783687956, 0.06610637380581134, 0.03602621547989065, -0.0009963078514226924, 0.028469357917936623, 0.029822839923178145, -0.043027081595705396, 0.03753195082140121, -0.09474202956533388, 0.03053431420557962, -0.006321591863464753, 0.004144182930199463, 0.005918182479613172, 0.03100242669151054, 0.04205713161793408, -0.09133201614045877, -0.07384536966995267, -0.11548075660688287, 0.009465065228570515, -0.012352836977833815, -0.05254194461188445, -0.056718272669840995, -0.034837499371584243, 0.05395872637559506, 0.016066319190490626, 0.012188245864365089, 0.022397260643474224, -0.04499308970284821, 0.033616055183287426, -0.053874575497492284, 0.05423970884134297, -0.04849071061724479, 0.023717191057958588, -0.005396514902739203, 0.008954854994443642, 0.004326182638718185, -0.03336230122673831, -0.058164652959966576, -0.08644250418418291, 0.1255877486614562, 0.0638127231399005, -0.01217497521391657, 0.052405129912395126, 0.0352595143873548, 0.017627351783978056, 0.022243969926492375, -0.0014528140497159496, 0.12024873879707763, 0.042790813003762404, 0.0977099293971986, 0.03448131084786924, -0.06155653941014402, -0.05900794094975904, -0.01924343484529543, 0.005778829239981767, -0.0399929231115033, 0.07138369786884016, 0.01062505890781805], [0.039566878395199505, -0.03146385290558704, 0.06330801645310015, -0.02059523002497522, 0.08757673910610149, 0.050499528262045665, 0.012725515525213326, 0.07083759062011352, 0.11783139267398783, 0.0127477637002508, 0.014440960615608, -0.07598707271884626, 0.05275277782759129, 0.06496933298734438, -0.06582113817509626, 0.04992696051936054, 0.020834415798312876, 0.010427613874042693, 0.03547999373025784, -0.030642305817218492, -0.06715253683676464, 0.05983550248693841, -0.0009731255991186052, 0.10048596721514841, -0.058932363381848166, 0.09107071133278533, 0.0622749875386882, -0.029236988822380433, -0.024581201845642123, -0.05324501501524534, -0.13219092890156772, 0.1025708786386676, 0.06130757792536939, 0.013439159582764083, 0.02973552787686381, 0.0012902658670662112, -0.0628950365557689, -0.010882018953149535, -0.01977477310684935, 0.023473991315820043, 0.000886675722881446, 0.035592469987962096, 0.02447046031395173, -0.06118890671645664, -0.1212658105920271, 0.041332599585165004, 0.05532580454092437, 0.10178959538237313, -0.0655551607341287, -0.011014172279792452, 0.033418838852033665, 0.05089217903814956, -0.07838418413845524, -0.053750651306935064, -0.010058709906027743, -0.024648530632371757, 0.025109180548851095, -0.04283446299834207, 0.038150250181449234, 0.02097667590215588, 0.03409503430166114, -0.09966026028984899, -0.009011887491727589, 0.0066895015781294085, -0.007928172133359359, -0.053515263278709126, 0.04496216087329473, -0.023986074147877855, -0.04127882533436598, -0.08344795947626044, -0.06350471972139349, -0.02074549559918233, -0.04236901731282886, -0.060176952818222905, 0.09273612240175534, 0.03973492514035282, 0.06760772373495545, 0.005842011709183082, -0.03263680303296989, 0.0923070929103976, 0.03777273060683014, -0.07210742974526804, -0.017432175666240356, 0.013321454315497581, 0.0076651038681657905, 0.1351025031353443, -0.09103783627575478, -0.056203731566137595, 0.06515451504398198, 0.09034659342015713, -0.05793781155760337, 0.0324396199336021, 0.05357601134684671, 0.045017769831359064, 0.003228537787281697, -0.03085201831691869, 0.017857066073649248, 0.06439918270483337, 0.06853845082299806, -0.028910530944528532, 0.015954312939716542, 0.021429487587307717, 0.11957893408270338, -0.029708463908049352, -0.0103293372400953, -0.046961375104237986, -0.13104661841692625, -0.01851259298935932, -0.04815851254051507, -0.08525698049063553, 0.05117809823017413, 0.02103208159853466, -0.05137656938091296, 0.049108331687900235, 0.06478799653443186, -0.021947876860009204, 0.06024632314847894, 0.015159526079771477, 0.12655717328464275, -0.0254725575758917, 0.11737457112903975, 0.05511977073438772, -0.06697209867591682, 0.06828741651249973, -0.05494429421123289, -0.054308359189266776, -0.0764534389859807, -0.040645920576097234, -0.08080649600011268, 0.04735465922650012, 0.04943644446156048, -0.05895954178212029, 0.052908821543188496, -0.009651044550376204, -0.01281025509524084, 0.013545405507265977, -0.023243071995025674, -0.007356583019410022, 0.013582334152871663, 0.1495024034944899, -0.019920693584654352, -0.05830562990960426, -0.022440965219303353, -0.05497072988035464, 0.10384211945622664, -0.00565019663702462, 0.042265451421664296, 0.024333564559585463, -0.04591098114451792, -0.08615703039836457, 0.0746515122587041, -0.030063013822835306, 0.11810600688405923, -0.022321976090879603, 0.05022303235468199, -0.02725142691164728, -0.03295009902987983, -0.10109767537298545, 0.0043152181233728415, -0.014099556860858314, 0.08340424242694724, 0.13356060710446901, 0.06471468515429815, -0.021549855542560854, -0.024289273507822274, 0.04803501241576828, 0.011732305096097852, -0.04801719847290124, -0.021270771388289214, -0.04426366765162629, 0.017879007527812577, -0.03073026548131446, 0.0740855050906991, 0.08375152458863559, 0.03479997002506359, 0.0634346186054102, -0.13541975487218766, -0.07569513143795249, 0.015065891549348093, -0.06517724437880673, 0.04922367101176779, 2.8985402253019245e-05, 0.14207767048220718, -0.0043434432260004985, -0.024602953701603328, 0.02707128070830014, -0.027674199002100382, 0.1815830711312945, 0.09134119576557281, 0.0005053731957926118, -0.07902274074607954, -0.004515673537884028, -0.00947373539385779, -0.09086927582442617, -0.09647395176549506, 0.13649481072981956, -0.05557161840093654, -0.0738442245500995, -0.12101849010843133, -0.051812446177317666, 0.00999046545454868, 0.0864126893039146, -0.0164322920335624, -0.05995588546000435, -0.0006315404956494239, -0.015151416101806195, -0.05477662785785029, -0.04592094313709256, -0.11675954471627739, -0.06001796685442096, -0.0839221411556014, -0.09016918262246885, 0.05997710398506329, 0.15124476864224712, 0.0007364452882499448, 0.0076698644582717575, 0.05751149007632794, 0.018797856031800137, 0.017302314826990125, -0.032350199519216825, 0.02126458626375604, 0.030478499655644815, 0.1666313572542122, -0.10144350997444998, -0.0034507055544753364, -0.04544615269215248, 0.00879699606527883, 0.03971637768238209, 0.12822735140983918, -0.041621418170262325, 0.05528442782767934, 0.011531477692319478, -0.05817159400436836, 0.08809055620529005, 0.04130915917451256, -0.10380992342400754, -0.0013818075524056966, 0.07367656665422681, 0.02113848441143035, 0.08626338963088766, 0.00691381545580098, 0.007910107232186197, -0.022120980407683025, 0.015100506826180492, 0.03360295993891327, -0.05610349928008236, -0.06685444493187748, -0.0398686817160304, 0.00012509722483590433, -0.030361170169943105], [-0.045363353190206575, 0.010648413463593619, 0.02153102497486837, -0.06778165899544787, 0.058780687574656224, -0.03302400389722279, 0.13409303148272403, 0.03538851299325113, -0.035344295614121106, 0.00993822098651419, -0.06348405862137901, 0.10573741485988619, 0.04266963766555329, -0.047651790667536276, -0.03416007614405761, -0.09646518890621228, 0.08516192649023714, 0.09727592378154895, 0.01698070713020956, 0.03328384623553795, 0.04760586072782751, 0.0928492073296808, -0.0025655026043385778, 0.06176487740962443, -0.019694451973715273, -0.03209345773932706, -0.01629808513062765, -0.028650993999610404, 0.05115389691321105, 0.017666026571215666, -0.01157985662815161, 0.04541623751053638, -0.0030962930797992496, 0.0490365457955047, -0.03751997503525525, -0.060762173763558004, 0.06472821292862985, -0.07755464438439028, -0.11776450037767831, -0.1470398670331709, 0.007502875516179529, 0.010144870582552612, -0.012581856421354617, -0.061737123237091254, -0.026867410032442224, -0.0556448856775117, -0.0222220386145743, -0.01520211718231657, 0.01167405342917179, -0.016513855580210388, -0.06275289462455533, 0.01718423755876041, 0.00531327552803132, -0.018061835149226102, -0.05931135991200357, -0.01449492235392073, -0.0684085664020974, 0.013290791750164135, -0.0007039446622640877, 0.10290924400630828, -0.06626295168161636, -0.02835521986374763, -0.0052941454645848455, 0.004887553145917701, 0.015112318099539545, -0.038509453040749736, 0.00785835682130247, 0.0842270180802802, 0.11699473923134204, 0.11881213375093733, 0.01651139492221402, -0.01104807537018802, -0.007895796694705639, 0.012353546176306714, 0.010419225345143477, 0.014557160982252746, 0.019113001215681418, -0.0018710202888605352, -0.05072337269633931, 0.07046294046912019, -0.03541672125817457, 0.05013695677975736, 0.06253657066000104, 0.09764124734289621, -0.024181982892890076, 0.03589445868205203, 0.015457065433783668, -0.03778227700638858, -0.017167739807253394, -0.058276726466405936, 0.04546251572912052, -0.03858272893338137, -0.05912190041267898, 0.08283171877912263, -0.09012418472276264, -0.01603130076713553, 0.005792002254963756, -0.12844969115517257, -0.002464395679182851, 0.02673794491396437, 0.0377702031729769, -0.04444130925932042, -0.054950307763441085, 0.006566117018297072, -0.07570888689839443, 0.056616237149152406, 0.12607034334043152, 0.00204304599191682, 0.04369786659224911, -0.07923728402976547, 0.004781917755557787, -0.02473588600963412, -0.10743000933324932, -0.09759290575219691, 0.047843445706375054, -0.014147728324295455, -0.09287697038939406, 0.047760465235600784, 0.01621225224698431, 0.04536167863248072, -0.03238636210628514, -0.015937747893199575, 0.014272090745732598, 0.02981245943784515, -0.011122151469654389, 0.02783249867331931, -0.015229555591639675, -0.07980313318764842, 0.025936126212251914, -0.0844950336634238, -0.19059954049366049, 0.019679765385621415, -0.05276511146125403, -0.1784830443981243, -0.05393260777860995, 0.012960306481356845, -0.04220717739536864, 0.06290474791847697, -0.03617094923859, -0.0009762370094580538, -0.03392173563350847, 0.07585916761591725, 0.0702971484393483, -0.02674895887139767, -0.01283869404655421, -0.037289614747028826, -0.0026775975480991085, -0.03499883958352428, 0.18247512350122116, 0.057472903675406105, 0.008131123703471261, 0.04326705175234278, -0.012473553869817196, 0.05799002010442243, -0.025100818560000755, -0.04564903767400626, 0.05841285438271086, -0.03807496020003398, 0.019587439788689986, -0.05930090961478176, -0.025184846414848854, 0.110689941049717, 0.04006504509595791, -0.052670021776976966, -0.08351883152699027, -0.061573025711849104, 0.012926110542257325, 0.0665068594277121, 0.017448864866900504, -0.05136039694147708, -0.014241183769172093, 0.025070415622117835, -0.039391786581184335, -0.04395442911367232, -0.09398886799753006, -0.0002457800489947883, -0.01091182421225409, 0.043781127667972194, 0.005990227212440549, 0.04719516999667088, 0.02299283545383724, 0.06400079086406671, 0.07028332160277215, -0.0012605351432793035, -0.20791899840938602, 0.026653192583678854, -0.0479730692497945, -0.04236800297449222, 0.057955453288870154, -0.042822723538147575, -0.03604435057454012, -0.08372461266848445, 0.10155545532906912, 0.0007723018968368129, -0.01885674722453211, 0.012400025786043458, -0.03331947921890739, -0.05995372054863419, -0.01830596804555325, 0.0705347516430719, 0.00655750552715237, -0.019771731978419128, -0.005867004756068131, -0.06587713589707515, 0.0666191603680909, -0.06106098268454313, 0.018203979967511223, -0.06694550195544571, 0.04434669531124484, 0.03205098106731124, 0.014366552147336753, 0.017252252753609067, 0.023034163977249337, -0.002183125324864536, 0.009218689445980692, 0.1259252359351512, 0.04558362358330062, 0.043972503279029726, 0.012633169035046785, -0.025784730017501097, -0.03284060870716287, -0.03394893617149785, -0.07674321758368038, -0.09998311716398048, 0.1746944046853087, -0.02445812101558362, -0.04049107911486566, 0.07158087688900754, -0.10400613218059862, -0.011896609831049345, -0.14794688159857858, -0.017448518322019994, -0.004503128124152648, 0.11411009331731362, 0.024706669696162625, -0.0048390407779548995, -0.0933278341176614, 0.13194208511054928, 0.08294680327861736, 0.13841165779790449, -0.03786870549187299, -0.016992053230451033, -0.03328894374087975, 0.015009566462665432, -0.009480681206821027, -0.05304831369303944, 0.04258467512113848, 0.0075765134122563575, 0.04268653359611396, 0.04960284639390726], [-0.010295560447983448, 0.0100153032195843, -0.04344257800373729, 0.0013451895036447996, -0.011625067577221058, 0.046014176421814754, -0.06740712606705535, 0.04237016974525619, 0.01965519824098705, -0.0037297639928558658, 0.16451644091417003, 0.012515822253667815, 0.03826496486144303, 0.13094408163187413, 0.0935173760754282, 0.054522011171897554, -0.11233930855390806, 0.009025605433181599, 0.08999737642862843, -0.01214331342574671, 0.006523861945028552, -0.053389585246907345, -0.11763388242896197, -0.02307535175677945, -0.017275853267775986, 0.007557800328654708, -0.009961172518816354, 0.01891138122262078, -0.11106876958947895, -0.02800826752409105, -0.04323447672007399, -0.01049500289576294, -0.03441407594137173, -0.012870752578999322, 0.10016418364464226, 0.019752419517246017, -0.073851826711291, -0.030601936876024916, 0.00023967393042436096, 0.13072552741332438, -0.10020556116174713, -0.04307237454406962, 0.017874419216650353, -0.019781150633778825, 0.010671345616429207, -0.017575258894591973, 0.06065824861587179, 0.045801056868907106, 0.022282745029246494, 0.007767430939962036, -0.013562430402747063, -0.06674782818212516, -0.05703205018381859, -0.0112243760159162, 0.03005806496619777, 0.0644430662299364, 0.046372185177095016, -0.048875611705103045, 0.04424379603223773, 0.05315470203698692, -0.11832044756037102, 0.04685082067147321, 0.020946749659569212, 0.005216621430464242, -0.08451461706672159, 0.033718017549853194, 0.10987308647697598, -0.029265622425572277, 0.06064514418971642, 0.08001205496763031, 0.04472830887853394, -0.0672504345327985, -0.0664666755036141, 0.038711635497896225, -0.08084197714087896, 0.043689287025777075, -0.06844205674242408, -0.020387281995751936, 0.017073487368480245, 0.0742837009125264, 0.08227184930172367, -0.039266697502316185, 0.06614415562050091, -0.1417525951583931, -0.001323453745443965, 0.023167862638006437, 0.08245589689759676, -0.14705304300796604, -0.00524177686787895, 0.11421283721458252, -0.028429449493181807, 0.12471967832828439, 0.059950539847021686, 0.061257868186442015, 0.006094080769106908, 0.10573293730626347, 0.0068224535858191675, -0.029726444082908095, -0.06032508761052386, 0.025353016375317186, 0.08067080407829205, 0.021291625922539477, -0.08003876223079234, -0.14851862206941405, -0.05063361707158009, 0.12810735157301253, -0.10056378808644155, 0.08428055170846971, 0.02265476975286062, 0.12727234423299782, 0.11264440697236602, -0.0005125935956948708, -0.04525377303291978, -0.05186663102659469, -0.06187561670902643, -0.058218422858468434, -0.03610084401235106, 0.05053071945127897, 0.0014836055630630604, 0.03588134553580697, -0.04136153336346538, 0.07921590828942127, 0.052541681269021194, 0.045957838418537386, 0.014963617347560947, 0.09066831264083948, -0.047960318368849224, 0.005035924153191661, 0.18026812321225077, -0.0007157571543895795, 0.05086518148941852, 0.05113014836011304, 0.060980661896927545, 0.051347120932997835, -0.0644024199297572, -0.0704364671395655, -0.08150743399310016, -0.02117901626572496, -0.10586732679201878, -0.04955571252250942, 0.04520523533648422, -0.023531844740044945, -0.047194787576950475, 0.012717192602576805, -0.05633402076836279, 0.09297300500151852, -0.020192344996790464, -0.04062223754815592, 0.08540963215873414, -0.06044168916791407, -0.051108587824377966, 0.032821593877182524, 0.00684772544155016, 0.01812841306790804, 0.1245146182499387, -0.052685509827826264, -0.051562217963399534, -0.031658820392936576, 0.03269069390684909, -0.04279141355405093, 0.041627723579505164, -0.06442827427532097, 0.06724503620917469, 0.025753692385045268, -0.05535329456418922, -0.07837709924888224, -0.0809444026702453, -0.12182343898585228, 0.007149819351274161, 0.09153146174788544, -0.034395022484176585, 0.05210208712311131, -0.05502665452317324, -0.0335675045835617, 0.008292085290013318, 0.1154001028015566, 0.025457550768862195, 0.08865979988938669, 0.16740667994886893, -0.1246503684306946, 0.02874478342731222, -0.006610384326563463, -0.09714177127485207, -0.02696402484940618, -0.0014397309600908213, 0.016229869736752216, -0.08415881002759908, -0.027197881134840087, 0.04773359585639543, -0.09338583168834802, -0.06749984650212013, -0.04387846455305073, 0.06682635466353179, -0.012606227137309443, -0.039378125063929924, -0.10144980938734749, -0.033234942345860934, -0.06997755115529357, -0.07344686109902682, 0.07470101006659725, -0.09522393578871344, -0.09059930618357098, 0.031580960797762875, -0.003006933847356728, -0.07205570590401195, 0.0484417720244808, -0.00854780677686464, 0.03470325738318677, 0.1466498268284204, -0.007310377766660624, 0.07696870007863288, -0.05381839456834227, 0.05790533576970086, 0.06236518916809345, 0.02870217797536793, -0.004239194560045556, 0.11562463871220888, -0.1541191235774962, -0.04366999735020193, -0.04482098417359072, -0.11400628309802409, 0.0001335533314285659, -0.09750543335987948, 0.07037227854920565, -0.03264518283125733, 0.023459876193083082, -0.06864724096039451, -0.025707541655693417, -0.017217395125285223, 0.09506077128024978, -0.0471143514362128, 0.09461662010148289, 0.05174725653396317, 0.0919556647308822, 0.044981523760846624, 0.14044856247771043, -0.07218071529368023, 0.05985334580364253, -0.06494861938984077, 0.01835370970215584, -0.0714513786061559, -0.049604254777313846, -0.005635305392368201, -0.09183803935059791, -0.06416468147323919, 0.0649319705784563, -0.017139790842658438, -0.06603331401667631, 0.11840247317779287, -0.019659778812642404], [0.017539153414746097, -0.059805474240303094, 0.04312987917646634, -0.003750504890783067, -0.04318954957714511, -0.029619364466649086, -0.06749110876090345, -0.0004707144296329658, 0.08076112756864326, -0.03272350445487345, 0.09608655536102007, -0.043229898954886506, 0.007518051502838983, 0.056822752746903474, 0.05818060772970938, 0.06810936958302345, -0.16114607690260424, 0.051178700899887394, 0.05513616668907836, 0.07604869054548137, 0.054633625367586036, 0.1775194424288656, 0.0028431233298886506, -0.07617647202783479, -0.07578870726887803, -0.13574341527738013, 0.027987947525280388, -0.06292087959850566, 0.05749425890528844, 0.034843603438855106, -0.0428606131186187, -0.11328625806120841, -0.04619021193042769, -0.04284826463361583, 0.12128138564032939, 0.08462576601547579, 0.19955314817052222, 0.05543996365016051, -0.023257038954995087, -0.002130809688839476, 0.022256998933547243, -0.030332694271894632, 0.045194818464270196, 0.04504972279227617, 0.024660724511525036, -0.1115841248739878, -0.1553402766347911, 0.1186671881473528, 0.0076773294024638245, -0.048115503694838614, 0.0012174099633972659, -0.07120722164286339, -0.03550690430124499, -0.032011471955159417, -0.017897456158325685, 0.09045651981971445, 0.09567534558549873, -0.15873330376422434, 0.08451606463234441, -0.00509587854670465, 0.029015585575833225, -0.03417461153007086, -0.041555616852519184, 0.05074596291957773, -0.001733207021983864, 0.03601791985837286, 0.10270053098578547, 0.08331645637025828, 0.005298351037439752, 0.01570624056418206, -0.03724635079976054, 0.027201266192378074, -0.09256710117224298, 0.0045141645514068, 0.08169147070115068, -0.002260087287872312, -0.05113910169320454, -0.002427265763911649, 0.028743280871678996, 0.09026873772570111, 0.050551918227912176, 0.009542019814303387, 0.0038475582594829144, -0.012260636445492851, 0.0678058861112909, -0.05142609293039815, -0.07384814173601043, 0.0299766826636413, -0.025179149775843738, -0.009783412059440971, 0.08334010852685178, -0.010445921297881602, -0.010400725866112943, 0.02262402555971823, -0.04621293346191159, 0.01266014327141344, 0.019122949492157676, 0.03484855378055704, -0.04545990370266233, -0.040542395171537925, 0.013332509187423604, 0.016264085150591075, -0.04903968057547627, -0.05730351280082421, -0.057381514244822934, -0.03478143096417515, 0.008214530140943074, 0.01214325798411785, -0.019817356370895184, 0.0861841663064602, 0.0252590275211862, 0.005912442916491246, -0.0016095739993172056, -3.0174594813466276e-05, -0.006978390998753864, 0.06070499744029889, 0.04031380391350611, -0.07280234858932899, -0.03342049023437405, 0.03306455059586731, 0.021659340058605595, 0.0968889092621848, -0.047317005806576676, 0.1452945712048324, 0.007927889615468496, 0.06156031797814335, -0.12233470794219145, -0.10721229640633266, -0.009893328676007304, -0.03128657407014703, -0.055728579178294, 0.05237713537448257, 0.07277080130439605, 0.022021846889025, 0.04370776479392941, -0.0008161216411807696, -0.18568859348277073, -0.0627941368177587, -0.14379869925232888, -0.0004743464102246743, -0.054278485546598525, -0.02275608071271507, 0.02363566334667, 0.025309125864762427, -0.03661155893757534, 0.0066087347168399075, 0.03616224325924651, 0.09432626741741562, -0.04227488653665186, 0.01359794209669973, -0.005294338858454699, -0.007415602029052269, -0.011305257863698934, -0.012813158689212168, 0.052828167437920945, -0.014784138876415024, -0.0822484226187841, -0.028401916890340394, -0.035356460273764434, -0.1034032196681895, 0.034722611293518356, -0.07997607105811258, -0.034350322591032705, -0.11541069725232676, -0.009902772243282194, 0.0069718663859710504, 0.09259119457112322, 0.05070153623942477, 0.018165476104003642, 0.02074011250025793, 0.11681887517678434, -0.09077953552609978, 0.0676713932526419, -0.07058842987846792, 0.022458297482994296, -0.015944844652476583, 0.031121809058389363, -0.0019602096125346897, 0.006342372460790357, -0.11567555854128202, 0.019500896376592868, 0.003549794544053436, 0.061346732228879354, 0.056058637891351334, 0.020131171512340125, -0.09822190275972012, 0.013090821373648419, 0.03376997235990937, -0.01592280258959033, 0.002542522650852334, -0.07098984434493294, -0.08839975184238007, 0.030517994040773405, -0.047882262987659706, -0.015948848378992436, -0.020178749974503463, 0.0010675057981752087, -0.028359952383260462, 0.08490655484546217, 0.007822395915643576, -0.06141902886707214, -0.03370100220014074, 0.024574087967698558, 0.013090280745493609, -0.02562558499005162, 0.015897148737856227, -0.01843326731851954, 0.07575457510113244, 0.021852546274149218, 0.09510177840306033, 0.030067826619643828, -0.10591025939263124, -0.08710122161919141, -0.03348571586309413, 0.09827526841424743, 0.02430155091541339, -0.045589776293437176, -0.1687510027016531, -0.03087485201181474, -0.05726220987918299, -0.0471442084828655, -0.056852165280420655, -0.06952017691139659, 0.028793221547353656, -0.057115003811928265, 0.09440222646952358, -0.1012819061369106, 0.0766946148184915, -0.014935858505829262, 0.07934993965698857, -0.019163108728198153, -0.0665572627714958, 0.06414238047358495, 0.009625385265017966, 0.028432400471914792, 0.005748373556626109, -0.16660658667377312, 0.07634118336323922, 0.005222796623339135, 0.028523674282438263, 0.026780422231755027, 0.15074364643244104, -0.07934174727895081, 0.0777820026308012, 0.04237916309704252, -0.02202393520054582, -0.04742713920573926, 0.04368403271339652, -0.06663617263904219, -0.021215370873852744], [0.06296062996122971, 0.08128437910827171, 0.0452470893723877, -0.060826386610006784, -0.04142519449049243, 0.08550840954127177, 0.03500842572346897, 0.0021909818575414123, -0.1288628308691359, 0.035370043009209186, 0.047868313737112665, 0.07042872376307385, 0.04627611039686572, 0.08339133957522099, -0.00973487253897198, 0.038197551655840024, 0.03089731577420318, 0.0677991471156057, -0.013957363188131143, 0.02318767475679721, 0.04527838260297529, -0.06579444674009333, 0.053451695932051436, -0.11875393512550737, -0.06764247667847137, -0.01308204948458465, -0.08007570689832448, 0.03873068838447957, 0.013880458245877905, 0.08067850797572951, -0.08473058262533002, 0.06770931876228117, 0.0030783486934007212, 0.08242639235372244, -0.03439193858544774, -0.04305403288012829, -0.02000661480450002, -0.07815762257902996, -0.15057332301315798, -0.11006932534017108, 0.03301813216927891, 0.0013328927609593361, -0.01492184709992676, 0.1324877342829092, -0.04723528048177583, -0.11444822741482133, -0.0018705274761173071, -0.019657470094845007, 0.010844062940604965, -0.0085679162486089, -0.07866160353765592, 0.08076866497930997, -0.0070921800154737065, -0.020288607470428554, -0.018068677279087692, -0.013210035503207028, 0.16285127629856747, 0.07187858767742765, 0.01625784509329498, 0.007111615246392597, 0.0038906728164529903, 0.02647156083827969, 0.04177762895602809, 0.04637969507375166, 0.03339775027807068, 0.07359616576001822, -0.013460637292244936, -0.07939951152877107, -0.011689856174491132, 0.0317380736301311, 0.08736837818206657, 0.0137974164599021, 0.04457791581366877, -0.006166844300215348, 0.021617174206704233, 0.03964167695696732, 0.15803532664734052, -0.07134476570640899, -0.07103397113775532, -0.09939551034106099, 0.006463097280147837, 0.0006207229830256574, 0.09068776282641923, 0.0043355877094469935, 0.07758174266786508, -0.0006748319353866375, 0.018650577850593708, -0.00426154355020669, -0.04015074656636988, 0.02969936646538728, 0.05421001169197323, -0.03870793932807247, 0.02985069044848634, 0.019940367980048942, 0.005489750376688259, -0.05704782774803212, -0.01861147386651345, 0.01474278099619664, 0.014045733745757833, -0.10473496241423767, 0.01776159554101331, -0.02473697174268762, 0.0020164136781600384, 0.09337505111959796, -0.015078984815282727, -0.03306078728433388, -0.10632825591046852, 0.003952248656584324, 0.07980800773807083, 0.04067858151535135, 0.014455361644392569, 0.05299109720815815, -0.021470619347551335, -0.009952970390622082, -0.03130293090415665, -0.024677127526628238, -0.11693873153892656, -0.010433407627937586, 0.13969275536452233, 0.0041042532159253015, -0.024072654311187238, 0.0026118526083048358, -0.08561832790633352, 0.032564518215051026, -0.08820177240852131, -0.016462106078923164, -0.03866950773995264, 0.010708347869095247, 0.19812515939127573, -0.002349186300717483, -0.030383311645483583, -0.013717567083827065, -0.004219442869977043, 0.030527463861872266, 0.019421683040998193, -0.05340771599545026, -0.12262386550665097, 0.04171164287220078, -0.07429834537731562, -0.012710854617927017, -0.09963612392325505, -0.08324958166248726, 0.11359024709659746, 0.09238665943721232, 0.08793824527303494, 0.010595479464859538, -0.022918878723170028, 0.06265157243640349, -0.10467854173374029, -0.022667167577427, 0.06623658784325398, -0.007862574040164603, -0.020674964394419508, 0.10440693115997879, -0.13138791926912557, -0.07061861865932964, -0.12939242334626208, 0.038590441641136786, 0.019221693296844734, 0.00014408397236863291, 0.06522206194726984, 0.005648993914230689, 0.030193376671936337, -0.02991800282171503, -0.005967636913833528, 0.00021302322123356989, 0.008369531089674415, -0.026834475239759136, 0.05033945223271455, 0.0626206587985256, 0.01902724757453429, -0.05622278973885101, -0.006226841984321986, 0.04468600853084017, 0.09695270582529351, -0.07771365626229322, 0.13293727274370853, 0.029046505401467294, 0.053684674487487836, -0.007023719201030171, 0.034362986962687136, -0.05301370305955746, 0.033713349652920485, -0.06447487236893949, -0.00933966211375989, -0.03747680798132182, 0.02852302818440025, -0.06319583120205156, 0.042359522184394295, 0.09547769334473025, -0.03662643780861135, 0.1643141775941221, 0.02324731892939827, 0.09224477934246542, 0.1535373513913026, 0.08969157723570569, -0.0063624761660816195, -0.010970015683195106, 0.06862108411461133, -0.015936591251869213, -0.015742791362522206, 0.05453421145252951, -0.06467147027350968, 0.023399374272701463, 0.08015245111387732, -0.13318039138835047, 0.09162286583646084, -0.055261232848218676, -0.031215936007793658, 0.007900594809864677, -0.06414574755417368, 0.08179484802978791, 0.033828029453649815, -0.049425087620665005, 0.07613780234506005, 0.06275743264055858, 0.03232476895798938, -0.07774545939070023, 0.02459739888170614, 0.0026135557451252385, -0.0731497049515752, 0.03750222165292017, -0.06570670154923894, -0.032903771743776886, 0.033338779461466565, -0.1125520485733575, -0.13734479731014437, 0.01732326583922878, 0.028260975586873308, -0.03479302284510885, 0.09853371264641969, 0.07193573056457359, -0.06409602974617777, -0.05221583931145301, 0.0010389925226693178, 0.00013862825756996873, 0.04906608395913131, -0.007259595656458701, -0.0911560067880075, -0.04328313518743148, 0.024110482182553433, -0.04788449232603589, 0.02250498972897287, -0.005228372931158197, -0.009806810208879631, 0.07513315379845054, -0.14993797819479032, -0.05020023035383329, -0.0005198358851776256, 0.08908974881322569], [-0.04713772540819036, 0.009703371665387369, 0.012713868405314415, -0.02943431477265208, -0.04575784886863141, -0.09447709357210651, 0.06083946238167289, 0.004657386231749296, -0.03463586535524551, -0.021061107486590794, 0.11875722735643625, 0.10882748730975064, -0.003196937599840085, 0.05941329768781162, -0.02480728392318477, 0.027817668010548618, -0.007725084320742984, 0.002426730023614917, -0.007759805866312842, -0.016054615830082462, 0.07858981774619984, 0.07635859888030246, -0.011465967861617753, 0.05527733691791073, 0.013838660313808966, -0.023107068159460266, 0.013790573023680388, 0.059780705639577186, -0.06151631372016965, 0.004780297395386084, 0.034841772009041476, -0.05796598842678088, -0.0013304755435592807, -0.08187275614585095, 0.0009644589783736677, -0.01839130196152687, 0.06492322304642707, 0.057699787894849815, -0.07086942611758461, 0.04922055667217059, 0.035356902525610134, 0.010906230660414558, 0.07441389821178694, -0.08366194897699675, -0.04085373424820279, 0.0018714541805261438, -0.06127936783077345, -0.016589154312447906, 0.01577241832397848, 0.014315939368810475, 0.018371542063613654, 0.07107485223618615, -0.011496908446724605, -0.17109925287125594, -0.023933011223862984, -0.025695386922074653, 0.052792131564445954, 0.0970419942873812, 0.16704926989538232, 0.03666484467003203, 0.019895674699849666, 0.004808924108344022, 0.07951610698815509, -0.045900921351516986, -0.05243148230190612, 0.13930782906617933, -0.06523359691714903, -0.026189037302829055, 0.01570024321647517, 0.02380517417978213, 0.030468050882937636, -0.05865992019757845, 0.06627587887361497, 0.05771714134478775, -0.026812611256181465, 0.045904523521027155, -0.03298902484650994, 0.014453771943112436, -0.02504472445528883, 0.0013148962161275075, -0.10097002125861404, 0.047020652957539856, 0.022066303384475457, -0.00553993451121601, 0.08902514094888485, 0.020683533042657368, -0.09284650133985671, 0.05417964776199774, 0.005872236223758051, 0.019027830307665087, 0.02141832197634019, -0.01086802578434132, 0.009622805002422706, 0.028599232047945556, -0.024081953946824504, 0.03004372708022958, 0.06411208504463102, -0.027847456122029192, 0.007105631207120329, 0.05287856622871677, -0.05650701977177106, 0.10698449624432677, 0.028688913303134195, -0.023697639243278477, -0.05279723855486356, 0.030235129200188372, -0.05662006570000574, -0.10757967477477641, 0.008659792917836681, -0.09110286266352545, 0.017971719232262665, 0.10650184030272034, 0.008273572361048311, -0.0018575555642375966, -0.06041518862814525, 0.020912976567553306, -0.04473931042726883, -0.10199076078901498, -0.04039495394094178, -0.04789259873378926, 0.0814094411894885, 0.010326606587530297, -0.039626005487857795, -0.06659076092638652, 0.03487340470037516, -0.010868298617994345, 0.004766063703949768, 0.0033765986510669727, -0.07612998527826119, 0.07115118872421801, -0.010728826577848911, -0.022535337529534006, -0.0688332986616699, 0.07421022861777649, -0.14106561251896244, -0.06834586782008027, 0.05343591140599222, -0.07630567775326852, -0.015222528837315875, 0.08727608454601636, 0.021250630740334217, -0.10097136764544709, 0.12144258273342697, 0.020423530431194416, -0.03338441196828421, 0.03088015845141815, -0.06092960150663617, 0.025013484311555142, 0.07368546915134833, 0.012269532971559407, 0.07969781713575881, 0.033173970284249205, 0.13486543168762588, 0.11245040866653151, -0.01172058006481297, -0.01950647984071036, -0.051653205984854116, 0.027680122290302592, -0.07442264132551164, -0.07557411813529309, -0.04504821480072581, 0.05068066398538995, 0.058034486770221515, 0.001912964465225933, 0.04850962286457568, -0.1008712903096269, 0.01479409064654544, 0.08525973868637915, -0.08076776071501468, 0.11386103024817383, -0.012928336037847366, 0.04993195951906214, 0.06887296541861704, 0.03929875724581254, -0.10904090040433703, -0.023167470639529716, -0.006825541175841318, -0.011088625281952183, -0.03484636763687028, -0.007066638275605556, 0.1030923458746966, -0.022202709506058325, 0.11693338513566554, -0.015116670640119916, 0.1058814656560774, 0.0737307600700617, 0.016896819591373877, 0.05018182743169731, -0.10043497893143406, 0.0007413221281313318, -0.01571909989322545, 0.1086220139107164, -0.003409187171685413, -0.09741298254885086, -0.0009146297701793354, 0.03585304874322627, 0.037239389926161506, -0.04540279071587765, 0.04318540412111223, -0.15771864684683215, 0.1037434326385548, -0.020258556390568054, 0.026310929987735755, -0.017300000529036852, -0.032862894125187614, -0.0642173961483756, 0.061409661617292645, 0.007735740562473564, -0.03178001571571201, -0.007503609429581002, 0.03568067272312373, 0.09942947495930983, 0.05363113583049548, 0.0781401359279082, 0.11364086686708787, -0.00870473836366426, 0.058365397988656, 0.01869590557629306, -0.026406761494251932, -0.1451339650035762, 0.10523154030804664, 0.07312755610414849, 0.13728231421648732, -0.09062658127892696, 0.004939764192526108, -0.014853827552413799, -0.01662635020181926, -0.030144981258783878, -0.02037405426002219, 0.03253271013263058, -0.12229566127474764, 0.05237144290548494, -0.012617195755120198, -0.02140133231415283, 0.0329525724211284, 0.015451266478366118, 0.12999668420588573, 0.001922328284536784, 0.07659168230852119, 0.0037194690447868435, 0.002217743555489475, 0.007882692682722804, 0.06687245116295681, -0.1452354477281096, -0.15791878502852727, -0.04592289970459159, -0.027458922386935387, -0.018376302406041267, 0.1141920910754594, 0.03611746102402518], [-0.04432056436607491, 0.017759501348977417, 0.14218481847797076, 0.03588442093660467, 0.036254804932941496, 0.06779322421275989, -0.029015961604799658, -0.06635890905833429, -0.0006375349766697643, -0.0797636654921884, 0.12546256467463252, 0.11381061499121942, 0.12538173741263006, -0.042047757734455966, 0.028050773618654306, -0.08994661214529838, 0.030312690483988575, -0.0031841843092496025, 0.02163512071145728, -0.09969460381135899, -0.13702135557952885, -0.06880063696010781, 0.045555279740769714, -0.09530552093112431, -0.014931488191819478, -0.09741242666859289, 0.02220667618674814, -0.05639245187994855, 0.04623177225834794, -0.04822221564812146, 0.08011191759391653, -0.04243354994716433, -0.054719490121631485, 0.06890404372689908, 0.019352659133665677, -0.0691159636799077, -0.02716889945402356, 0.04274054735393839, 0.03880127582261444, -0.05793356498235568, -0.04073931938252682, -0.0759992993644035, -0.10447036272575255, -0.08130557491429277, 0.0323518287885659, 0.004546479869785848, 0.01643633123763108, -0.00827260900887454, -0.03905566069359611, 0.045446080994241134, -0.030638134968526496, 0.010678922341433373, -0.12945426503465923, -0.06134347729052579, -0.01679042869243965, 0.09333688669769416, 0.052402635390488006, -0.09725715170149128, 0.050989587638653924, -0.05573078812334455, 0.03601714318441291, 0.09484743978039178, 0.015018094943218173, -0.1061248165632292, 0.004721874637265944, -0.01276093920232715, -0.07155733129923399, 0.10129044028384311, 0.11313484244057825, -0.041805109939590725, 0.022246163695527274, -0.10738522229990788, -0.03419523004383095, 0.021897263172063617, -0.042149086115307065, 0.0019724039781005872, 0.09050670828679366, 0.028652406169943526, 0.012188034949065106, 0.08917808603259214, -0.095615616956862, -0.012963265085592817, 0.046236160683703044, -0.044281895967915555, -0.1784879843335533, 0.12230420165981051, 0.051730943081935016, 0.029588125441315376, -0.10344249690446553, -0.06994446158147337, -0.04582828004184415, -0.08532339057107591, -0.027277613616691662, -0.0721175395158324, 0.013696450906492966, -0.07915999450917513, 0.08671060540040965, -0.016901023351807928, 0.05226582102470879, 0.008361987542366072, -0.024165957777271978, 0.059148552693194016, -0.046109060195262105, -0.044444666240233945, 0.09519898481998314, 0.016974296727633897, 0.08099252866473557, 0.105332273006899, 0.09288617314755104, 0.02087492981657804, -0.025204325486286767, 0.0274508294391869, 0.03671281020146293, 0.02559601826162609, 0.0029145352671610175, -0.10791187087340857, 0.0869830374151395, 0.05944013071915228, -0.07267442427063087, 0.037762751842114695, 0.05218798199677081, 0.1365514327262654, -0.04244735982152331, 0.03667944805457334, -0.016539318211287547, 0.03173443995209832, -0.07350695795779921, -0.05321859210512074, -0.033798199595144775, 0.05095301138720223, 0.1320393748857883, 0.05415911562083014, 0.0007650825464471297, 0.028892525972826318, -0.02536468001511954, -0.027409424761638813, -0.03894312289753379, -0.07789915564717323, 0.0014641145708086153, 0.08565667821607185, -0.07528974521775496, 0.22930778802031995, -0.036574929255710195, 0.05618725056470974, -0.09347842746564868, -0.006165358087546896, 0.01903422982496113, -0.03142945022803071, -0.1308929727808187, 0.05746346685965274, 0.005992897904843094, -0.04241997725914888, 0.011148877008827133, -0.03072956935862788, -0.011733406727181121, 0.03752377493067546, 0.01420105420459831, 0.03947186406678711, 0.06238930546901632, 0.1112737166758005, -0.051413779242178756, -0.10520043796772913, 0.03788594824091354, 0.09164178957527253, 0.005486025591686651, -0.024000081725179142, -0.010445974435266684, -0.011788390964242059, -0.06585727499954304, -0.08935091533156082, 0.052599200992949076, 0.03407364311734537, -0.04207710316624118, 0.00717771409432112, 0.0638213361280075, 0.008244988941789325, 0.04932255702946083, 0.06131767452639465, 0.026157279422350677, 0.06789600421853978, -0.04928943699739116, 0.033488506879850104, -0.10951216379239975, 0.02967499735784055, -0.12963995167175935, 0.015741214418076896, -0.02036859955463696, 0.028001436944552927, -0.015755516651134845, -0.048396121916399096, -0.06731827613054983, 0.08428154507270416, 0.06645703564040499, -0.021414548575177984, 0.13427011092699948, -0.10715218951478517, -0.019688948098085433, -0.06956058960557507, 0.029080126757567375, -0.006524880458515012, -0.022943697948544214, -0.1460906304760802, 0.06862270251182422, 0.016873027252388206, -0.013325734062341771, -0.045324724722287726, 0.03325226715885408, -0.01667437612132261, -0.0716331508653821, -0.026746380863055138, -0.17398750666039722, -0.05595817395464362, -0.07814646726434425, -0.00015642026826663915, 0.03183328181603956, 0.04398713091502268, 0.09054319606124413, -0.04116976163779533, -0.012178691488632808, -0.09272996703114053, 0.04831684899846283, 0.03875093262572026, -0.09921069702780072, -0.022862547642343325, 0.0009875087573468166, 0.048205022007643504, -0.1019031116882679, -0.03162567021923627, -0.12925635965722815, 0.10521029764071783, -0.0004045068217097355, -0.051020346455247376, -0.028551364480729504, 0.057654592502063486, 0.06632021444456776, -0.0014983102864963992, 0.0844603297098703, 0.0004336359705756883, -0.05234630060523307, 0.12526126218961883, -0.11724177019955177, -0.03792357872266492, 0.02115351528737366, -0.013177777232672305, -0.0028936008543461356, -0.05270213126013868, -0.06373821430055054, 0.10629674884125906, 0.061110640228258975, 0.08258540370277105], [0.001167337795643409, 0.03308187022368422, 0.12083970882225709, -0.08285017771424626, 0.07750446298020404, 0.0356322743197824, -0.055694455860473946, 0.03547711369756559, -0.02030944289487917, -0.08187373067037708, 0.016870450460987924, 0.012537988162660248, -0.06163482968477299, -0.0024416949457915843, -0.07561977576496408, -0.07253874784254585, -0.04229438900687256, 0.04164585757750079, -0.04997279697739717, -0.021588494389693763, 0.1427175201290744, -0.04572213687988599, 0.00034403176514747095, -0.04932671696775211, 0.1438168954316578, 0.015622699494230162, 0.03131432351835919, -0.008011784547127887, -0.056544099268058035, 0.058085056570866656, -0.042837066721436196, -0.09070257204766698, -0.10373810561351963, 0.1512052249683029, -0.02527747833876236, -0.03802367416393044, -0.03936132784740203, 0.09151229434988768, -0.06291953926194165, -0.006927043931264398, -0.012525229807998148, 0.013751215032909984, 0.16490200581685535, 0.039398803022053175, 0.010180279589294915, -0.08010837694310981, -0.026992448047375585, 0.07791179534203933, 0.0051583311267923175, 0.11564783678487404, -0.09961688857352806, -0.11694911978320305, 0.10743151170205795, 0.021094923040282734, -0.1134609793158694, -3.571194562562198e-06, 0.04114490793584421, -0.053738775915248414, -0.003583529844026262, -0.016178794760814564, -0.016927835581227825, -0.08142475010106989, 0.14732136673346793, -0.009925419108963048, 0.05996148142609058, 0.04537448920025766, 0.022590264026159403, 0.11743014256541845, 0.04394826813184465, 0.16348815655630627, -0.0760298514361455, 0.002912254118349923, 0.033562803496261465, 0.02488191690299074, -0.04412643509247849, 0.03184874200243105, 0.03820169995777938, 0.03809597144276152, -0.11164486168815337, -0.06902661187704653, -0.006675206226866437, 0.05782607527471218, -0.12641375812611097, 0.013395907757188191, -0.08712579760848153, 0.06061423892002577, -0.05001859599468199, -0.017355844948894326, -0.07162747287384386, 0.07447063480281867, -0.01905496418247996, -0.06224143704061203, 0.005322540437605325, 0.009832363218983673, 0.04044647115412908, -0.05823795155347926, -0.005530304605074501, 0.005073131491729283, 0.040015351089840744, 0.03156209546594341, 0.029110918340032536, -0.0887715544574909, -0.05531297409048378, 0.015178915669397252, -0.008475156662117407, 0.018737612397320615, -0.05014928263707966, 0.13173447377658343, 0.07147812016485453, 0.09363685252672987, -0.05475383895378192, -0.04076468060917902, 0.03625112114875555, -0.015563814551343813, -0.001314692110685074, 0.024687272459644697, 0.10822975415403047, 0.05196211898940297, 0.002366738966544279, -0.09591978708630337, -0.029723225228302876, 0.035220170039306276, 0.0035163119301221428, 1.8930345029432308e-05, -0.16391015580818577, 0.04211071568287701, 0.05334474087425626, -0.006046022693580673, 0.018970298437165304, 0.021579948941009102, -0.015239019323088963, 0.03622511383990962, 0.00910676952593137, 0.13955450288275367, -0.0075290471461665655, -0.04028512411407714, 0.047198900925772794, 0.0015004722046084767, 0.03541316106153187, 0.017886822637580183, 0.05145319932625047, -0.04029735813060477, -0.031575131478536446, 0.06933352144712002, -0.09182388131121788, -0.04126048029349227, -0.11576562798891549, -0.041616916914691375, 0.10628172340115122, 0.11603790369175017, 0.06651819139810218, -0.018739398919400775, 0.039793603010802106, 0.012433518737336658, -0.011499158044437763, -0.014425141547469112, -0.08216148272160673, -0.08725140140976946, 0.052533439502107655, 0.0010269771707516007, -0.07849151955507713, 0.015428142223170403, 0.06198262354706967, -0.05587823820845967, -0.03417704237734175, 0.025687936495307265, 0.061461113640436466, -0.017672396140860386, -0.042791514285471795, -0.014494087299436253, 0.10030671553798516, 0.02647126314738884, -0.06383631106725018, -0.02066050182302597, -0.07509746299173846, 0.04927493925425659, 0.01626211044282384, -0.018591733012431184, 0.01456203648140273, -0.014789026907614867, -0.015204435761569499, -0.026953620367008626, 0.06576494798003622, 0.035609900630548225, -0.1521232031631794, -0.012535776497489869, 0.041850176269331275, 0.08298472459995397, -0.04334656072590016, -0.02156951036447392, 0.08448938687502275, 0.021251627955019985, -0.0013308937322243529, 0.11256206269813024, 0.12275391434228325, -0.029566072644680474, -0.05148949511030762, 0.06468392765959381, 0.05384358229381488, 0.006729788738717637, 0.0638602939819678, 0.05574996108950391, 0.03606004984950357, 0.052498858597560295, -0.07946959276973298, -0.09013997896708728, 0.04513698460503967, 0.07335944306787982, 0.08955438411321122, 0.031128826818834603, 0.053669488700831165, -0.015021228117231736, 0.04915676522679128, -0.04320133792650888, 0.01759770880883254, 0.057483884906016774, -0.12825810427407622, -0.03670316990280353, 0.05748756038937587, 0.11430027806046565, 0.03768091100646976, -0.0629558882221417, -0.038945492910634705, 0.08673535761449849, -0.08814070511811208, -0.04460289688575405, -0.07374096541282081, 0.02460389385576266, -0.07379395801859802, -0.06039793043307395, 0.07562162126975441, -0.004563466146843467, -0.0820487653436972, 0.0626171777232582, -0.06146721390989922, 0.07066450184878854, 0.0038893439800005455, -0.06420985329008697, 0.10180848999431458, -0.11365778420207559, -0.08401330403248743, 0.04826112502124164, -0.08588689432819092, -0.04197065746385037, -0.01399693557081592, -0.17094677162101213, 0.00503374814597954, -0.042816366411874154, -0.030113541473523967, -0.07060563291975133], [0.04666612925123611, -0.011993422454833473, 0.13647204551435813, -0.06416547825199516, -0.0850232595078873, 0.02265056576115216, 0.07829574046649, 0.04302918559817247, -0.002038604260209886, -0.015788876896898417, -0.02126092033414044, -0.010951227024778507, 0.04692615154799638, 0.04675620691461093, 0.03859478450993947, 0.029047888373220497, 0.050382289706986556, 0.057130292185631176, -0.04240276848309276, -0.00889831785763205, -0.035059075967959326, -0.07113613672802309, 0.07714820922720504, 0.023259812657353048, -0.005829637929505502, -0.004088276762697065, -0.0325652338670019, 0.027367425074604015, -0.10215820516241539, 0.053654600069866956, 0.016079922615744282, 0.016202307383329985, 0.027058161692046216, 0.14575978521543145, 0.05957696064288481, -0.11435219545164522, -0.007002843090224137, 0.07790681162636469, -0.040423614640087986, 0.007305791799742728, 0.17687387919761216, 0.22633828595234468, 0.09770186414723357, -0.043989300001025, 0.11125891001910632, 0.06639807940476661, -0.003035687184114391, -0.018728836793781165, 0.09503662227435358, -0.022146866536477867, 0.014486432528349398, -0.015362858056092523, -0.09796285852862577, -0.07701553448151278, 0.10774543465060038, 0.15012849270956616, -0.03922785753268902, 0.029454646256609835, 0.1274102223725884, 0.14244646672264397, 0.036701650479171885, 0.0491015550693102, -0.05273105829607416, 0.037300891918219926, -0.04048710524378104, 0.025634668370834425, -0.023198787903180126, 0.11143317379110408, -0.09125983004707924, 0.06503505352404892, 0.008411574055343847, -0.025662407286520368, -0.023111752533049985, -0.110306598905365, 0.012900683046675786, 0.07708706490894679, 0.044368049740185336, 0.027237928617332114, 0.006696416140855642, 0.03291795199694682, -0.05665692687231089, -0.03839364388870152, 0.09238195244193188, 0.025797218092962298, -0.08281333146235961, -0.01715787651808957, -0.04809328278325179, 0.08919330493927681, 0.10089060601269957, 0.04751472406030983, 0.028479228672877967, -0.05343810948145706, 0.006721021029658427, -0.016872719252394728, -0.017919087019322842, -0.05429318477575197, -0.004189762866584172, 0.007715509526954583, 0.02043567293359077, 0.13036221719787397, 0.07677096044596118, -0.12303862161235704, 0.02436526351074368, -0.06755307704187888, -0.07699141480888559, 0.0005504585241248269, -0.06955713522148795, 0.07990808737992001, -0.011866553828609055, -0.024265870775931935, -0.04097963526967393, -0.06586415977547297, -0.03694445224266296, -0.08235585964374142, -0.034641762208818636, 0.01795037331079763, -0.01945378697127407, 0.05060385545193345, 0.036067132654981404, -0.0009327990314897583, 0.062491336429017934, -0.06297905090131194, -0.04451726590080253, 0.026853929330264655, -0.010310826952737242, 0.09510761509862306, 0.060370655943813335, -0.08933812245865455, 0.06699625385812225, -0.044076018612770954, 0.03525047042104611, -0.08516126064245819, 0.053691519141220896, -0.056669178877267315, -0.02487755254061786, -0.024696923189716367, 0.023518138321291814, 0.04496557885420458, -0.06550456726093645, 0.05798009760445376, 0.03933067629230172, -0.05142360470122358, 0.09635893883791521, 0.005585396928938488, -0.01022231903131774, -0.0439666578339053, 0.05203424635230745, 0.025920275995586477, -0.043122956774585254, 0.014721009264668294, 0.10095001463092178, -0.030299383856951117, -0.03134131035383999, 0.08531690083050358, -0.0607847619226802, 0.015177392120925143, -0.01338433390347615, -0.10870153402864506, -0.02098645355929203, 0.03882051551105239, 0.0495698996894818, 0.0340584892513839, 0.03385546795079752, 0.08990084964844322, -0.05257699888983485, -0.08907557196482728, -0.05313501317932671, 0.08559341611459227, -0.0445726046070405, -0.1346689566066093, -0.03594230436716477, 0.054062004854369045, -0.001161016200248814, -0.0003438422569008641, -0.05680128180990981, -0.13633837606764215, 0.044738621238764764, -0.0588469235932146, 0.09059249469996325, 0.08004094179710217, 0.015315349166285687, 0.08189679424198949, 0.03203103031108269, 0.12004257622019475, -0.11402081982791369, 0.028202334243189697, 0.0045965643143341004, -0.047811306310624566, 0.039800218442501305, -0.07893005593799234, -0.0984382812034955, 0.07926222596762995, 0.02183591171466595, -0.06619346760829205, -0.09230759257412695, 0.00829428600706423, -0.047511907766654767, 0.0064210835290496125, -0.0248474813353205, -0.03467688448012388, 0.13419160307250086, 0.09348246174893106, -0.038166597055742706, 0.0954854482589836, -0.11777879104749311, -0.001774542496874098, 0.00733041606363047, -0.05845888895737332, -0.006394584042968655, 0.023648733742792544, -0.06275852712378081, -0.026652393482634484, 0.11290661925277873, 0.005493885802198615, 0.03460206650372506, -0.010803096736529298, 0.00042326759966821814, 0.0747749808645237, -0.06160468210350749, 0.03846788806789997, -0.05340797126440074, -0.02449152336884324, 0.038975897275480766, 0.02177704853419394, 0.023383574802529537, -0.0391141248675974, 0.11783449514746601, -0.026314478709581993, 0.06040694116895857, -0.01619090509860435, -0.011662502611848103, -0.07958504203357773, 0.056343412592873225, -0.05280566916544346, 0.08835308058169052, -0.055608085676271186, -0.08375455145534046, 0.029739535030607986, -0.12114011225444724, -0.08428340343824434, 0.01101575379500968, 0.011590327551345146, -0.051185579877637784, -0.033337813543322804, -0.0750399380960995, 0.08073070194710961, 0.007076272562263691, -0.037781676899180765, -0.10116940759528918, -0.05714917687709095], [0.028192662866791687, 0.06411861987163206, -0.03902926252597682, 0.07756780246613078, 0.08428527214360265, -0.061813159240733925, 0.013523050495625374, 0.011410498357008175, 0.0645852160585855, -0.13742830667719388, 0.02196829894722688, 0.014347667576182863, 0.012669633587479075, -0.008135581185696336, 0.0007731010215756519, 0.013746281377433188, -0.051603701174560236, 0.04966237150809093, -0.10442553112611595, 0.04282905049621445, -0.01961228266774525, 0.05497593836225461, 0.005401575398763831, -0.03369804600048528, 0.09105339545330471, -0.09186509034531841, -0.053046296673656894, 0.0019922355206588313, -0.09817964317475367, -0.045885622701982036, -0.015812072789696437, -0.04401388422069423, 0.017087585727994653, -0.0025031679180070937, -0.05349084120922161, -0.08318181064097771, 0.07277236090450265, -0.04327249732169416, 0.0329816974052357, 0.09247729452161618, 0.026084202625393255, 0.13571237603425162, -0.0025854068846143377, -0.01668936047247101, -0.039670586327280724, 0.014706581402738367, 0.12208853205828095, 0.011926725530519914, 0.048005681679607455, -0.06485105839857241, 0.0017461857152246813, 0.07489079900351844, 0.010987024063631215, 0.011954289822352866, -0.032660576366657416, -0.05192319964688422, -0.02433706961648637, 0.00959707382380958, 0.003171668063549584, -0.1098517509905148, -0.01573990720829464, 0.05602428498154752, 0.0015509783061528632, -0.01001615962754473, 0.057573595215816446, -0.058063932251458845, 0.07795068686788988, -0.051176582943691734, 0.009242035921731572, -0.13608366965062257, 0.13186953747327929, 0.07193080362805457, 0.0898207062751555, 0.016410665270184848, -0.06851082963753431, -0.05845009759342697, 0.08232180007728365, -0.057086144902901405, 0.026474365393574294, 0.10068104059414272, -0.029887714416207016, 0.020127946173312726, 0.009369422046276608, -0.028602313050968643, 0.031412009082521716, -0.044236912054640656, -0.02541396670957431, -0.022610088240316482, 0.06556628481161535, -0.001151790313605256, 0.0026045791891268735, 0.09793666402988278, -0.0030371721208925107, 0.0027427116284488456, -0.012666682678803292, 0.12621451215920962, 0.04105637739156298, 0.03680882923781609, 0.04538750454693548, -0.0014355560352384538, 0.020428877864192792, -0.11217407918989422, -0.006946698385636026, 0.026519046841401293, -0.06868622000040094, -0.057842093321926365, -0.0007357952758861052, -0.009933906679707486, 0.054080123128468584, 0.0028680441906389327, 0.0026901319054295565, -0.07776866280534543, 0.028393360473553265, 0.003991862505109662, 0.038515300641633235, 0.09196105139876154, -0.07404958881631206, 0.02320261000330939, -0.05077747344590106, 0.007752980617129182, -0.017107828022981105, -0.013414696273231013, -0.022704303182344527, 0.05356224369419956, 0.006481993529861659, -0.004884427116562513, -0.10341491309493601, 0.017044407531938956, 0.03999834583210312, -0.07561997006694311, 0.022444869798977495, 0.0703063364576192, -0.034153547357138776, 0.07183863829287386, 0.02203758988301425, 0.004880686775459714, 0.02768479662658568, 0.05945730817266364, 0.020740647707221598, 0.039128946317691954, 0.14021285217559878, 0.0938682112723023, -0.047090281568043374, -0.010239635818976533, -0.07721467744657921, -0.08491493401251451, -0.055696201308569775, -0.1122854016299819, 0.0039188314994372765, 0.04535761703144548, 0.03448939400041461, -0.007408533729351778, -0.05976037772909409, -0.0350030732325073, -0.10374604350249755, -0.10777874102927501, -0.05280137055115169, -0.11632525307769843, -0.0826447243265035, -0.08059554709238524, 0.03179611879001767, -0.06409695310483722, 0.011733695830934114, -0.018498399335744358, -0.12242975034752109, -0.02677540888359245, 0.056782445914208675, -0.10801606365265728, 0.014750328742251153, -0.09243729798995681, -0.14603233761396106, 0.042637447809124894, 0.06615231331240155, -0.03101040597679757, -0.08346993008340083, 0.0184204971148429, -0.009393943538181031, 0.014282119627397383, -0.05924665225939996, 0.08676063982550865, 0.07435818854169073, -0.013730887177841997, -0.06128808670966228, -0.04766826104498312, 0.003954059737094805, -0.021467928633615702, -0.057422739539620925, -0.07250741677518811, -0.004219827619393297, 0.03677292890239922, -0.0440849128311439, 0.02005299561508767, -0.03853259318323398, -0.023077475184765456, -0.058206858247306356, 0.1288785096933054, -0.09274619196018835, -0.016210828308399844, 0.0011512963625112005, -0.11409817990080202, -0.10325217495593592, 0.06373006842113856, 0.027583031258000497, 0.023074356611120513, 0.11332497237615866, -0.12006165826759664, -0.12148006588812281, -0.0020608750197799713, -0.050614687157902724, 0.04930229313220126, -0.06940068998027739, 0.06080968061258476, 0.03733068809905541, -0.04091678251188722, 0.029664471509213346, 0.05193316974461849, 0.012315387342901123, 0.013339705430072353, -0.030549768254179172, -0.0006834694814940415, -0.03917082894514869, 0.0115547817976439, -0.04203778000113928, -0.18040122456590416, -0.020860248182265798, 0.16778751907134892, -0.07149209974086498, -0.08224227667048932, -0.0972158565743552, -0.058180553377025775, 0.013342495562367926, 0.005773628033405948, 0.031228741251284716, -0.009112075764087834, -0.11414257603883816, 0.05477435026473694, 0.1163090556685502, 0.03899012722192729, 0.03184741084941893, 0.001854548865117293, -0.03871751536033427, 0.11858864878609719, 0.10179217323460313, 0.08800950127070052, -0.00039067712625345054, -0.0698079627233386, -0.022797361940595885, 0.07897776728750314, 0.018966536387027836, 0.09112976002955263], [0.002906721869010393, 0.07934635300492587, -0.10545793686469324, -0.013572237758135514, -0.11024617461545669, -0.013127127166151727, 0.06096383702892243, -0.10653065449681363, 0.06714795816338946, -0.034171466190743446, -0.01839422382479114, 0.047685388448032426, 0.20823698716892208, -0.09193026951266406, 0.019108285373696635, 0.006647320111535104, 0.0036474794550139618, -0.013768227168280939, -0.011061957766418907, 0.0008002384669779407, 0.0624337249248524, -0.051884571589362743, 0.008680224092179665, -0.15585460225654704, 0.010419126105808078, -0.03713041849860679, 0.1179031709821559, -0.045246667013807355, -0.14892574765105415, -0.04073310249864458, 0.06941093056830833, 0.03358808625325567, 0.011382919917523167, -0.0021683417323852764, -0.012762919498205698, 0.06456428298816737, 0.09458032005134022, -0.0065806736216121615, 0.035251132745007276, -0.0935755399958125, 0.08373779708103639, 0.028862910035156387, -0.023182754381463066, 0.048295342912735476, 0.00732623218529645, 0.037387919125813615, 0.07550926482509766, 0.10290823279834883, -0.011351367990189518, -0.03439376854574745, 0.08386905159203126, 0.10745134051946743, 0.05922343563908108, -0.058520585726795436, 0.059896760544637495, -0.05182338132597067, 0.011439901991277052, -0.09487505143511753, 0.027958192267005782, 0.034314409464136754, -0.035990020927928544, 0.010670537113258475, 0.05555444485614101, -0.03483408160020491, -0.05612400163876288, 0.020503928561058735, -0.030686151689596687, 0.02654148969461852, 0.039544165159402546, -0.05150536928310362, 0.024417018218477086, 0.032822430023091424, 0.10317212603323708, -0.0012663941802357654, -0.08380365985872476, -0.06476127385669547, -0.07785422527084117, 0.006907149445465421, 0.053380517759182185, -0.08207287976295324, 0.004142789520954067, 0.009941882238685978, 0.07443250152316677, -0.07948379626101433, -0.02011248800510487, -0.041237620882436946, -0.0029230788705948236, -0.10681690512355316, -0.007423956853122138, 0.012744402706246782, 0.04681369536344735, -0.049037487194217536, -0.04476517814814823, -0.04122180947478933, 0.03821896480678057, 0.10522433925614948, -0.039637284687153065, 0.07225159937275054, -0.1228873859841497, 0.03887335965442992, -0.04139421006637128, -0.02994396871920294, -0.0718974265207004, -0.09291560394541278, -0.08922255696164659, 0.06697544292954753, -0.052889323482567696, 0.03356989117738293, -0.0554949457521964, -0.05995984196434678, 0.05350681906641087, -0.029338379388393288, 0.04261632020788448, 0.03994180444227244, 0.003456631787494009, -0.05836161243167009, -0.062056994451553264, 0.026546316186420352, -0.007387430523236727, -0.0406809237717825, -0.0717289364750825, -0.003759555484616741, -0.02821513076289133, -0.02320118730559692, -0.019461990777487333, 0.1144395906615095, -0.0882486164988601, 0.05733030117820606, -0.12185653016974389, -0.03156059092090422, 0.04331431468223233, 0.16343724095717194, 0.026633335944421313, 0.016429977793164515, -0.04308127456913881, -0.05986980998557521, 0.016117825705258795, 0.042892688378573504, 0.05497467115889561, -0.025156501220041986, 0.10989762005917983, 0.00872195944690303, -8.681224698967374e-05, 0.02871808787974991, 0.01699371687135834, -0.06943485326546882, -0.11154078353574297, -0.1174703768237809, -0.04297637154167343, 0.014367166590483768, 0.026449427171099923, -0.012378385641111794, -0.09381518447748337, -0.00501017807930293, -0.18408347628478386, -0.014748355245240027, -0.03873782186470539, -0.07668694744654218, 0.006359211238610032, 0.021562723115476388, 0.032302345525756185, -0.01853992262779345, 0.052631182268467955, -0.03201157165180094, -0.017666407273982686, 0.007894770086867372, -0.06599069710418559, -0.025360242089227502, 0.0325684245805938, -0.07977814815130155, 0.0612578977970541, -0.13335975261262967, 0.10581756299025773, 0.023213246037913002, 0.04010010393992147, 0.04144832273935882, -0.001854708366461498, -0.004433439586513916, 0.1274070660795785, 0.0026540563974933604, -0.06410349315886782, -0.10348087512283119, 0.12160437071977545, -0.013548901397497428, 0.04284837610983673, -4.935667284787981e-05, -0.10165313850519475, 0.00014306972936593484, -0.09299159938497864, 0.07456077009539837, 0.13086587836535055, -0.052741606615411635, -0.07701700564785025, 0.02987727705943929, -0.051446358487850105, -0.06585829978329644, 0.11795253227032805, 0.03988205325494261, 0.0003295407878122357, 0.09730885117076842, -0.0422662153710533, 0.025815681088962827, -0.050629211028392136, 0.011226001811719458, 0.01315422207387094, 0.09153504025020547, -0.050784659979043474, -0.022917207419198136, 0.03803180319314183, 0.012252440265481382, 0.0747668000027434, -0.08531272003852593, 0.04298599278091732, 0.08334053176303657, 0.05386062613050337, 0.014034062697153446, -0.08081414293618425, -0.07750907938713278, -0.02396116029862497, -0.026390486237101288, -0.005822149204409901, 0.08152720140186218, 0.06504929765003062, -0.08813191477525953, -0.02622501600621281, 0.043083698595603674, 0.02270754060114583, 3.6205356037174985e-05, 0.07553587172414701, 0.01096657963111242, 0.027898067656389875, -0.09335577417262494, 0.026564815648152294, 0.02244399526307971, -0.03605109083103347, 0.003663728147448188, 0.03822690637246157, -0.13325352841659382, -0.05215213476959444, -0.003917546821797351, -0.007672959154548273, 0.14265051577046023, -0.04787923260303232, 0.01892170422136183, -0.017137122290409562, -0.0067196019557865996, 0.022889777334127656, 0.04486127980010988, -0.07000971937988057, -0.06983143346903341], [-0.047037596415383735, 0.00013769812612146387, -0.09644099677742224, 0.0747692972381864, -0.03846008256195958, 0.013324256969984597, -0.05498964912459108, 0.0939061725789643, 0.021788089849170078, 0.06200336231863966, 0.051992322104059734, 0.0025187769242613037, 0.023681126540449116, 0.11483197127072117, 0.0004187852959960843, 0.041113368971811996, 0.007403014477684774, 0.09742703015009024, -0.07297330153593401, 0.015199880757357776, -0.07842351603263678, -0.08566909534611758, -0.05426890571612804, -0.05495990586245447, -0.08017237448099027, 0.027934348320828264, 0.014468088612038727, 0.05438626352564452, 0.04100028415521082, 0.06514667444795082, -0.05305936901496901, 0.07512390001198432, 0.06457331273138885, 0.02830173400788025, 0.07280709752145556, -0.05103294020746727, 0.03553524118156208, -0.06179444215365635, -0.1000296484309298, 0.07799441076067451, -0.12258599545603337, 0.04190849629144048, -0.011743295959453415, 0.04722458907302961, -0.08076296312306518, -0.07397557974669293, -0.078379415787955, 0.04741390113740906, 